{"learner":{"attributes":{"scikit_learn":"{\"_estimator_type\": \"regressor\"}"},"feature_names":["Unnamed: 0","store_ID","day_of_week","nb_customers_on_day","open","promotion","school_holiday","year","month","day","is_weekend","state_holiday_a","state_holiday_b","state_holiday_c"],"feature_types":["int","int","int","int","int","int","int","int","int","int","int","float","float","float"],"gradient_booster":{"model":{"gbtree_model_param":{"num_parallel_tree":"1","num_trees":"100"},"iteration_indptr":[0,1,2,3,4,5,6,7,8,9,10,11,12,13,14,15,16,17,18,19,20,21,22,23,24,25,26,27,28,29,30,31,32,33,34,35,36,37,38,39,40,41,42,43,44,45,46,47,48,49,50,51,52,53,54,55,56,57,58,59,60,61,62,63,64,65,66,67,68,69,70,71,72,73,74,75,76,77,78,79,80,81,82,83,84,85,86,87,88,89,90,91,92,93,94,95,96,97,98,99,100],"tree_info":[0,0,0,0,0,0,0,0,0,0,0,0,0,0,0,0,0,0,0,0,0,0,0,0,0,0,0,0,0,0,0,0,0,0,0,0,0,0,0,0,0,0,0,0,0,0,0,0,0,0,0,0,0,0,0,0,0,0,0,0,0,0,0,0,0,0,0,0,0,0,0,0,0,0,0,0,0,0,0,0,0,0,0,0,0,0,0,0,0,0,0,0,0,0,0,0,0,0,0,0],"trees":[{"base_weights":[2.8890781E-5,-4.4212363E3,1.6622844E3,-5.750511E3,-2.1264797E3,6.6391046E2,5.3237104E3,-2.8894783E3,-2.1286694E3,-2.860725E3,-1.7782336E3,-2.3967279E2,1.7614852E3,4.380875E3,9.407273E3,-3.2786418E3,-2.584764E3,-1.9544022E3,-1.1853419E3,-6.5651685E2,4.2155328E2,1.0177781E3,2.4137563E3,3.6480378E3,5.432019E3,7.9162144E3,1.1266217E4,-3.51536E3,-3.0389683E3,-2.6868362E3,-1.9618523E3,-2.2021985E3,-1.7610481E3,-1.4738063E3,-9.9894775E2,-1.1119907E3,-2.3753098E2,-1.3554622E2,8.401046E2,6.30714E2,1.5425195E3,1.8614583E3,2.9771548E3,2.6561797E3,4.2747285E3,4.257384E3,6.176894E3,6.5783857E3,8.950521E3,1.0351758E4,1.4002284E4,-1.6458104E3,-1.8146578E3,-1.4165449E3,-1.616784E3,-1.2570228E3,-1.4402498E3,-1.01953503E3,-6.627372E2,-1.0458153E3,-1.1872941E3,-9.4507434E2,-8.4636694E2,-7.6509766E2,-3.7431406E2,-5.2037537E2,-1.2807874E2,-6.6270526E2,-4.5106042E2,-2.3835208E2,6.9070115E0,-2.4763101E2,3.5504898E1,7.5501904E2,3.5796133E2,1.9414107E2,4.6807053E2,6.3087976E2,9.489827E2,1.2817816E3,8.4448865E2,1.9412625E3,1.3482236E3,1.2666248E3,1.8867052E3,2.6055527E3,1.9542109E3,2.0114418E3,2.940431E3,2.7880369E3,3.4986362E3,3.4275645E3,2.1764773E3,5.122057E3,4.206964E3,4.5016235E3,5.862769E3,6.314436E3,8.935951E3],"categories":[],"categories_nodes":[],"categories_segments":[],"categories_sizes":[],"default_left":[0,0,0,0,0,0,0,0,0,0,0,0,0,0,0,0,0,0,0,0,0,0,0,0,0,0,0,0,0,0,0,0,0,0,0,0,0,0,0,0,0,0,0,0,0,0,0,0,0,0,0,0,0,0,0,0,0,0,0,0,0,0,0,0,0,0,0,0,0,0,0,0,0,0,0,0,0,0,0,0,0,0,0,0,0,0,0,0,0,0,0,0,0,0,0,0,0,0,0],"id":0,"left_children":[1,3,5,7,9,11,13,-1,-1,15,17,19,21,23,25,27,29,31,33,35,37,39,41,43,45,47,49,51,53,55,57,59,61,63,65,67,69,71,73,75,77,79,81,83,85,87,89,91,93,95,97,-1,-1,-1,-1,-1,-1,-1,-1,-1,-1,-1,-1,-1,-1,-1,-1,-1,-1,-1,-1,-1,-1,-1,-1,-1,-1,-1,-1,-1,-1,-1,-1,-1,-1,-1,-1,-1,-1,-1,-1,-1,-1,-1,-1,-1,-1,-1,-1],"loss_changes":[3.767822E12,4.2729787E11,1.3619851E12,3.7431542E9,1.3133709E10,2.903472E11,3.0730695E11,0E0,0E0,1.8977997E9,3.6383457E9,4.4258443E10,6.412324E10,4.9940005E10,4.1412854E10,3.6207E8,6.280069E8,1.283539E9,4.2797363E8,1.8794525E10,1.4477233E10,1.2544643E10,2.1907866E10,2.3743857E10,2.328245E10,1.1442618E10,1.6523526E10,7.216742E7,1.2192563E8,2.790359E8,6.638797E7,2.19435E8,1.2995379E8,1.2696986E8,1.504855E8,2.1123727E9,3.083845E9,1.9791291E9,2.9483008E9,2.6318715E9,2.614227E9,4.302586E9,8.848998E9,2.0230963E9,8.012071E9,3.91322E9,7.995261E9,2.204549E9,3.1658148E9,9.151676E9,8.628404E9,0E0,0E0,0E0,0E0,0E0,0E0,0E0,0E0,0E0,0E0,0E0,0E0,0E0,0E0,0E0,0E0,0E0,0E0,0E0,0E0,0E0,0E0,0E0,0E0,0E0,0E0,0E0,0E0,0E0,0E0,0E0,0E0,0E0,0E0,0E0,0E0,0E0,0E0,0E0,0E0,0E0,0E0,0E0,0E0,0E0,0E0,0E0,0E0],"parents":[2147483647,0,0,1,1,2,2,3,3,4,4,5,5,6,6,9,9,10,10,11,11,12,12,13,13,14,14,15,15,16,16,17,17,18,18,19,19,20,20,21,21,22,22,23,23,24,24,25,25,26,26,27,27,28,28,29,29,30,30,31,31,32,32,33,33,34,34,35,35,36,36,37,37,38,38,39,39,40,40,41,41,42,42,43,43,44,44,45,45,46,46,47,47,48,48,49,49,50,50],"right_children":[2,4,6,8,10,12,14,-1,-1,16,18,20,22,24,26,28,30,32,34,36,38,40,42,44,46,48,50,52,54,56,58,60,62,64,66,68,70,72,74,76,78,80,82,84,86,88,90,92,94,96,98,-1,-1,-1,-1,-1,-1,-1,-1,-1,-1,-1,-1,-1,-1,-1,-1,-1,-1,-1,-1,-1,-1,-1,-1,-1,-1,-1,-1,-1,-1,-1,-1,-1,-1,-1,-1,-1,-1,-1,-1,-1,-1,-1,-1,-1,-1,-1,-1],"split_conditions":[4.31E2,2.07E2,9.8E2,1E0,3.38E2,6.78E2,1.607E3,-2.8894783E3,-2.1286694E3,2.87E2,1E0,1E0,1E0,1.186E3,2.073E3,2.59E2,1E0,3.86E2,3.86E2,5.44E2,5.58E2,8.12E2,8.07E2,1E0,1E0,1E0,3.137E3,5E0,5E0,5E0,1.058E3,5E0,4.03E2,1.058E3,1.066E3,4.89E2,6.08E2,4.89E2,1E0,4E0,4E0,1E0,1E0,1.2E1,1E0,1.2E1,1.348E3,9.23E2,1E0,1E0,7.71E2,-1.6458104E3,-1.8146578E3,-1.4165449E3,-1.616784E3,-1.2570228E3,-1.4402498E3,-1.01953503E3,-6.627372E2,-1.0458153E3,-1.1872941E3,-9.4507434E2,-8.4636694E2,-7.6509766E2,-3.7431406E2,-5.2037537E2,-1.2807874E2,-6.6270526E2,-4.5106042E2,-2.3835208E2,6.9070115E0,-2.4763101E2,3.5504898E1,7.5501904E2,3.5796133E2,1.9414107E2,4.6807053E2,6.3087976E2,9.489827E2,1.2817816E3,8.4448865E2,1.9412625E3,1.3482236E3,1.2666248E3,1.8867052E3,2.6055527E3,1.9542109E3,2.0114418E3,2.940431E3,2.7880369E3,3.4986362E3,3.4275645E3,2.1764773E3,5.122057E3,4.206964E3,4.5016235E3,5.862769E3,6.314436E3,8.935951E3],"split_indices":[3,3,3,4,3,3,3,0,0,3,5,5,5,3,3,3,5,3,3,3,3,3,3,5,5,5,3,2,2,2,1,2,3,1,1,3,3,3,2,2,2,2,2,8,2,8,3,1,2,5,1,0,0,0,0,0,0,0,0,0,0,0,0,0,0,0,0,0,0,0,0,0,0,0,0,0,0,0,0,0,0,0,0,0,0,0,0,0,0,0,0,0,0,0,0,0,0,0,0],"split_type":[0,0,0,0,0,0,0,0,0,0,0,0,0,0,0,0,0,0,0,0,0,0,0,0,0,0,0,0,0,0,0,0,0,0,0,0,0,0,0,0,0,0,0,0,0,0,0,0,0,0,0,0,0,0,0,0,0,0,0,0,0,0,0,0,0,0,0,0,0,0,0,0,0,0,0,0,0,0,0,0,0,0,0,0,0,0,0,0,0,0,0,0,0,0,0,0,0,0,0],"sum_hessian":[5.12672E5,1.40084E5,3.72588E5,8.8701E4,5.1383E4,2.92761E5,7.9827E4,8.704E4,1.661E3,1.6528E4,3.4855E4,1.60571E5,1.3219E5,6.4855E4,1.4972E4,6.569E3,9.959E3,2.6869E4,7.986E3,9.8485E4,6.2086E4,6.1767E4,7.0423E4,3.8216E4,2.6639E4,8.311E3,6.661E3,3.298E3,3.271E3,8.554E3,1.405E3,1.1772E4,1.5097E4,3.132E3,4.854E3,4.7187E4,5.1298E4,2.6635E4,3.5451E4,3.5548E4,2.6219E4,3.5564E4,3.4859E4,1.4799E4,2.3417E4,1.034E4,1.6299E4,3.627E3,4.684E3,4.996E3,1.665E3,1.123E3,2.175E3,1.597E3,1.674E3,4.528E3,4.026E3,1.251E3,1.54E2,7.18E3,4.592E3,5.215E3,9.882E3,2.905E3,2.27E2,4.595E3,2.59E2,2.3393E4,2.3794E4,2.6285E4,2.5013E4,9.715E3,1.692E4,5.542E3,2.9909E4,1.9819E4,1.5729E4,1.4651E4,1.1568E4,7.011E3,2.8553E4,8.247E3,2.6612E4,1.3335E4,1.464E3,6.581E3,1.6836E4,9.038E3,1.302E3,9.413E3,6.886E3,3.224E3,4.03E2,1.368E3,3.316E3,2.525E3,2.471E3,1.232E3,4.33E2],"tree_param":{"num_deleted":"0","num_feature":"14","num_nodes":"99","size_leaf_vector":"1"}},{"base_weights":[8.779378E-2,-2.0678271E3,8.922329E2,-2.8753123E3,-9.795265E2,4.5803244E2,3.052312E3,-1.4447557E3,-2.1299502E3,-1.3773245E3,-7.8732837E2,4.5868483E0,1.1042626E3,2.5894126E3,5.368125E3,-1.9533447E3,-2.1625017E3,-1.614886E3,-1.229333E3,-8.821238E2,-4.9894247E2,-2.6750076E2,2.708774E2,6.9373474E2,1.4371691E3,2.3177925E3,3.3324368E3,5.0548945E3,8.0034766E3,-1.0552574E3,-9.269648E2,-9.6795056E2,-2.1759204E3,-1.9103597E3,-1.543027E3,-1.2845287E3,-9.4342664E2,-9.8138275E2,-7.9844946E2,-2.6719763E2,-6.0664844E2,-4.2749487E2,1.4090655E1,2.1682281E1,5.574177E2,4.9496536E2,1.0416111E3,1.3616617E3,2.6133674E3,1.7432001E3,2.6600312E3,4.3421865E3,3.0144841E3,5.8516377E3,4.2004253E3,7.346138E3,1.1089483E4,-1.2419933E3,-1.0729214E3,-9.68181E2,-7.051089E2,-7.901965E2,-4.9515225E2,-6.5367896E2,-4.8035364E2,-4.8925592E2,-3.1220697E2,-4.6111676E2,-5.417607E2,-4.2112808E2,-3.2425668E2,-1.5171754E2,1.4140102E2,-2.6998453E1,-3.1860916E2,-2.824478E2,-1.2651057E2,1.4215147E2,-5.935964E1,-5.517943E1,1.8969856E2,4.1335162E2,1.9829865E2,2.1848552E2,6.4322925E2,4.8513147E2,9.153791E2,8.4426465E2,5.546766E2,1.0833558E3,1.5419121E3,8.9248395E2,-3.305425E2,1.2596515E3,2.0880793E3,1.647831E3,2.379906E3,1.4341582E3,2.1422195E3,2.6971738E3,4.7104756E3,1.9550037E3,3.7079272E3,3.8168062E3,6.526458E2,6.6014824E3,4.5707573E3],"categories":[],"categories_nodes":[],"categories_segments":[],"categories_sizes":[],"default_left":[0,0,0,0,0,0,0,0,0,0,0,0,0,0,0,0,0,0,0,0,0,0,0,0,0,0,0,0,0,0,0,0,0,0,0,0,0,0,0,0,0,0,0,0,0,0,0,0,0,0,0,0,0,0,0,0,0,0,0,0,0,0,0,0,0,0,0,0,0,0,0,0,0,0,0,0,0,0,0,0,0,0,0,0,0,0,0,0,0,0,0,0,0,0,0,0,0,0,0,0,0,0,0,0,0,0,0],"id":1,"left_children":[1,3,5,7,9,11,13,-1,15,17,19,21,23,25,27,29,31,33,35,37,39,41,43,45,47,49,51,53,55,-1,-1,-1,57,59,61,63,65,67,69,71,73,75,77,79,81,83,85,87,89,91,93,95,97,99,101,103,105,-1,-1,-1,-1,-1,-1,-1,-1,-1,-1,-1,-1,-1,-1,-1,-1,-1,-1,-1,-1,-1,-1,-1,-1,-1,-1,-1,-1,-1,-1,-1,-1,-1,-1,-1,-1,-1,-1,-1,-1,-1,-1,-1,-1,-1,-1,-1,-1,-1,-1],"loss_changes":[9.4582224E11,1.3578463E11,3.3591666E11,9.325773E8,5.030945E9,8.73857E10,6.4245334E10,0E0,5.330432E6,7.517471E8,1.2127519E9,1.2697554E10,1.6804577E10,1.007521E10,8.201896E9,2.90368E5,2.6624E4,1.7171046E8,2.0731494E8,2.7660083E8,2.739269E8,3.9052426E9,6.324137E9,3.8071398E9,6.02692E9,7.1905116E9,4.280025E9,6.052856E9,2.066772E9,0E0,0E0,0E0,6.78912E6,1.8142208E7,1.3519974E8,8.060314E7,2.3363584E7,9.126502E7,1.1851571E8,6.956386E7,1.2660685E8,1.3249536E9,1.1271328E9,2.2375672E9,1.7837742E9,1.6080768E9,1.125548E9,5.260468E9,8.538112E8,1.3730488E9,4.881662E9,1.3828915E9,1.8760827E9,7.485096E9,3.9967048E9,1.5112929E9,6.368338E8,0E0,0E0,0E0,0E0,0E0,0E0,0E0,0E0,0E0,0E0,0E0,0E0,0E0,0E0,0E0,0E0,0E0,0E0,0E0,0E0,0E0,0E0,0E0,0E0,0E0,0E0,0E0,0E0,0E0,0E0,0E0,0E0,0E0,0E0,0E0,0E0,0E0,0E0,0E0,0E0,0E0,0E0,0E0,0E0,0E0,0E0,0E0,0E0,0E0,0E0],"parents":[2147483647,0,0,1,1,2,2,3,3,4,4,5,5,6,6,8,8,9,9,10,10,11,11,12,12,13,13,14,14,15,15,16,16,17,17,18,18,19,19,20,20,21,21,22,22,23,23,24,24,25,25,26,26,27,27,28,28,32,32,33,33,34,34,35,35,36,36,37,37,38,38,39,39,40,40,41,41,42,42,43,43,44,44,45,45,46,46,47,47,48,48,49,49,50,50,51,51,52,52,53,53,54,54,55,55,56,56],"right_children":[2,4,6,8,10,12,14,-1,16,18,20,22,24,26,28,30,32,34,36,38,40,42,44,46,48,50,52,54,56,-1,-1,-1,58,60,62,64,66,68,70,72,74,76,78,80,82,84,86,88,90,92,94,96,98,100,102,104,106,-1,-1,-1,-1,-1,-1,-1,-1,-1,-1,-1,-1,-1,-1,-1,-1,-1,-1,-1,-1,-1,-1,-1,-1,-1,-1,-1,-1,-1,-1,-1,-1,-1,-1,-1,-1,-1,-1,-1,-1,-1,-1,-1,-1,-1,-1,-1,-1,-1,-1],"split_conditions":[4.58E2,2.07E2,1.068E3,1E0,3.57E2,7.27E2,1.821E3,-1.4447557E3,3E0,2.98E2,1E0,5.88E2,1E0,1.402E3,1.2E1,1E0,1.01E2,2.39E2,1E0,4.1E2,2E0,1E0,1E0,8.88E2,1.2E1,1E0,1E0,5.66E2,3.137E3,-1.0552574E3,-9.269648E2,-9.6795056E2,2.02E2,1.066E3,1.066E3,1.066E3,1.058E3,5E0,2.015E3,1.058E3,6.2E1,4E0,2E0,5E0,2E0,1.2E1,1.2E1,2E0,8.84E2,6E0,1.2E1,1E0,1.2E1,3.137E3,1.101E3,1.088E3,5.88E2,-1.2419933E3,-1.0729214E3,-9.68181E2,-7.051089E2,-7.901965E2,-4.9515225E2,-6.5367896E2,-4.8035364E2,-4.8925592E2,-3.1220697E2,-4.6111676E2,-5.417607E2,-4.2112808E2,-3.2425668E2,-1.5171754E2,1.4140102E2,-2.6998453E1,-3.1860916E2,-2.824478E2,-1.2651057E2,1.4215147E2,-5.935964E1,-5.517943E1,1.8969856E2,4.1335162E2,1.9829865E2,2.1848552E2,6.4322925E2,4.8513147E2,9.153791E2,8.4426465E2,5.546766E2,1.0833558E3,1.5419121E3,8.9248395E2,-3.305425E2,1.2596515E3,2.0880793E3,1.647831E3,2.379906E3,1.4341582E3,2.1422195E3,2.6971738E3,4.7104756E3,1.9550037E3,3.7079272E3,3.8168062E3,6.526458E2,6.6014824E3,4.5707573E3],"split_indices":[3,3,3,4,3,3,3,0,2,3,5,3,5,3,8,2,1,3,5,3,2,5,5,3,8,5,2,1,3,0,0,0,1,1,1,1,1,2,7,1,1,2,2,2,2,8,8,2,3,2,8,5,8,3,1,1,1,0,0,0,0,0,0,0,0,0,0,0,0,0,0,0,0,0,0,0,0,0,0,0,0,0,0,0,0,0,0,0,0,0,0,0,0,0,0,0,0,0,0,0,0,0,0,0,0,0,0],"split_type":[0,0,0,0,0,0,0,0,0,0,0,0,0,0,0,0,0,0,0,0,0,0,0,0,0,0,0,0,0,0,0,0,0,0,0,0,0,0,0,0,0,0,0,0,0,0,0,0,0,0,0,0,0,0,0,0,0,0,0,0,0,0,0,0,0,0,0,0,0,0,0,0,0,0,0,0,0,0,0,0,0,0,0,0,0,0,0,0,0,0,0,0,0,0,0,0,0,0,0,0,0,0,0,0,0,0,0],"sum_hessian":[5.12672E5,1.54516E5,3.58156E5,8.8701E4,6.5815E4,2.98213E5,5.9943E4,8.704E4,1.661E3,2.1438E4,4.4377E4,1.75247E5,1.22966E5,4.9959E4,9.984E3,2.68E2,1.393E3,8.225E3,1.3213E4,3.3397E4,1.098E4,8.668E4,8.8567E4,5.5065E4,6.7901E4,3.6588E4,1.3371E4,8.926E3,1.058E3,9.6E1,1.72E2,8.6E1,1.307E3,1.604E3,6.621E3,1.1072E4,2.141E3,1.5271E4,1.8126E4,3.485E3,7.495E3,5.5274E4,3.1406E4,4.7371E4,4.1196E4,3.5044E4,2.0021E4,6.3807E4,4.094E3,1.366E4,2.2928E4,3.199E3,1.0172E4,4.616E3,4.31E3,8.75E2,1.83E2,1.09E2,1.198E3,1.522E3,8.2E1,6.2E3,4.21E2,1.034E4,7.32E2,1.927E3,2.14E2,9.677E3,5.594E3,1.4024E4,4.102E3,3.27E3,2.15E2,3.93E2,7.102E3,3.0921E4,2.4353E4,1.0349E4,2.1057E4,3.46E4,1.2771E4,1.5402E4,2.5794E4,3.2653E4,2.391E3,1.8363E4,1.658E3,2.7794E4,3.6013E4,2.103E3,1.991E3,1.3427E4,2.33E2,2.0983E4,1.945E3,9.15E2,2.284E3,9.125E3,1.047E3,4.094E3,5.22E2,3.955E3,3.55E2,8.35E2,4E1,8.5E1,9.8E1],"tree_param":{"num_deleted":"0","num_feature":"14","num_nodes":"107","size_leaf_vector":"1"}},{"base_weights":[1.086933E-1,-8.891062E2,5.3021027E2,-1.4291898E3,-4.07029E2,2.0705835E2,1.2811028E3,-7.2238617E2,-1.01346924E3,-6.45778E2,-3.29113E2,-1.813915E1,3.4805582E2,1.0986797E3,2.6087092E3,-1.0241528E3,-6.853142E2,-5.6854767E2,-7.61222E2,-3.8728488E2,-1.8464317E2,-1.07522865E2,1.1000955E2,3.0042398E2,8.7967694E2,1.615381E3,9.3920154E2,1.9438998E3,3.2177534E3,-1.0749479E3,-9.688166E2,-3.6600882E2,-9.2401483E2,-5.9214105E2,-2.7677267E2,-8.573482E2,-6.662839E2,-4.2122916E2,-2.733505E2,-8.4349655E1,-3.1265982E2,-2.2408092E2,4.5866566E1,8.4317665E1,8.081058E2,2.6244376E2,9.17505E2,7.343367E2,1.301796E3,1.3097523E3,2.2054338E3,8.68449E2,1.8801282E3,1.4810178E3,2.9201555E3,4.2376616E3,2.8244998E3,-5.0296338E2,-5.7277637E2,-4.8911337E2,-3.5241714E2,-7.612925E1,-2.0631355E2,-5.0803287E2,-2.3556946E2,-2.5358261E2,-3.6645856E2,-3.2922672E1,-2.2335152E2,-4.3070703E2,-1.6821156E2,-3.2993744E2,-5.584345E2,-2.2223572E2,-1.323935E2,-3.4388007E2,-1.2889973E2,-5.5174416E1,5.4747894E2,-1.8225504E2,1.3207988E2,-1.2346747E2,8.63331E1,1.4579668E0,1.8653894E2,2.392117E1,2.5710938E2,3.9433148E2,1.2417837E3,9.173466E1,2.5065744E2,3.4019775E2,6.051202E2,2.7823773E2,4.8112714E2,9.466289E2,5.2985583E2,3.129278E2,7.8088995E2,1.00819666E3,1.6388243E3,3.7288794E2,6.208289E2,8.2374286E2,1.2698296E3,8.747026E2,-1.1631726E3,2.1397883E3,9.2364886E2,1.5477452E3,2.696912E3,1.5313378E3,5.863752E2],"categories":[],"categories_nodes":[],"categories_segments":[],"categories_sizes":[],"default_left":[0,0,0,0,0,0,0,0,0,0,0,0,0,0,0,0,0,0,0,0,0,0,0,0,0,0,0,0,0,0,0,0,0,0,0,0,0,0,0,0,0,0,0,0,0,0,0,0,0,0,0,0,0,0,0,0,0,0,0,0,0,0,0,0,0,0,0,0,0,0,0,0,0,0,0,0,0,0,0,0,0,0,0,0,0,0,0,0,0,0,0,0,0,0,0,0,0,0,0,0,0,0,0,0,0,0,0,0,0,0,0,0,0],"id":2,"left_children":[1,3,5,7,9,11,13,-1,15,17,19,21,23,25,27,29,31,33,35,37,39,41,43,45,47,49,51,53,55,57,59,61,63,65,67,69,71,73,75,77,79,81,83,85,87,89,91,93,95,97,99,101,103,105,107,109,111,-1,-1,-1,-1,-1,-1,-1,-1,-1,-1,-1,-1,-1,-1,-1,-1,-1,-1,-1,-1,-1,-1,-1,-1,-1,-1,-1,-1,-1,-1,-1,-1,-1,-1,-1,-1,-1,-1,-1,-1,-1,-1,-1,-1,-1,-1,-1,-1,-1,-1,-1,-1,-1,-1,-1,-1],"loss_changes":[2.4166133E11,4.9853284E10,7.793846E10,5.835489E8,1.8818642E9,7.130201E9,2.3401759E10,0E0,1.074816E7,2.2150758E8,6.4100864E8,9.903942E8,3.4965893E9,6.9999E9,4.7205253E9,7.843584E6,7.740956E6,1.0253773E8,9.04617E7,2.1020774E8,2.8115296E8,9.106833E8,6.371409E8,2.9701734E9,6.956831E8,3.610706E9,4.3208786E9,2.519036E9,2.431021E9,6.834816E6,3.093888E6,4.05514E5,2.022548E6,1.64736E8,4.0043016E7,1.020032E7,1.3768192E7,1.522258E8,8.028858E7,3.7666886E8,2.8781357E8,2.6247667E8,3.091011E8,5.3732454E8,3.911917E7,2.2522414E9,5.0920397E8,3.4196736E8,4.14229E8,2.2747034E9,1.3789942E9,2.7638948E9,6.9240934E8,3.8768742E9,2.6100388E9,2.2189711E9,1.7270047E9,0E0,0E0,0E0,0E0,0E0,0E0,0E0,0E0,0E0,0E0,0E0,0E0,0E0,0E0,0E0,0E0,0E0,0E0,0E0,0E0,0E0,0E0,0E0,0E0,0E0,0E0,0E0,0E0,0E0,0E0,0E0,0E0,0E0,0E0,0E0,0E0,0E0,0E0,0E0,0E0,0E0,0E0,0E0,0E0,0E0,0E0,0E0,0E0,0E0,0E0,0E0,0E0,0E0,0E0,0E0,0E0],"parents":[2147483647,0,0,1,1,2,2,3,3,4,4,5,5,6,6,8,8,9,9,10,10,11,11,12,12,13,13,14,14,15,15,16,16,17,17,18,18,19,19,20,20,21,21,22,22,23,23,24,24,25,25,26,26,27,27,28,28,29,29,30,30,31,31,32,32,33,33,34,34,35,35,36,36,37,37,38,38,39,39,40,40,41,41,42,42,43,43,44,44,45,45,46,46,47,47,48,48,49,49,50,50,51,51,52,52,53,53,54,54,55,55,56,56],"right_children":[2,4,6,8,10,12,14,-1,16,18,20,22,24,26,28,30,32,34,36,38,40,42,44,46,48,50,52,54,56,58,60,62,64,66,68,70,72,74,76,78,80,82,84,86,88,90,92,94,96,98,100,102,104,106,108,110,112,-1,-1,-1,-1,-1,-1,-1,-1,-1,-1,-1,-1,-1,-1,-1,-1,-1,-1,-1,-1,-1,-1,-1,-1,-1,-1,-1,-1,-1,-1,-1,-1,-1,-1,-1,-1,-1,-1,-1,-1,-1,-1,-1,-1,-1,-1,-1,-1,-1,-1,-1,-1,-1,-1,-1,-1],"split_conditions":[5.17E2,2.39E2,9.23E2,1E0,3.73E2,6.42E2,1.735E3,-7.2238617E2,1.066E3,5E0,1E0,1E0,2.9E1,1E0,1E0,2.07E2,1.071E3,1.058E3,3.16E2,2.015E3,6.19E2,4E0,1.2E1,1.2E1,2.015E3,1.214E3,3E1,2.608E3,1E0,5.45E2,1E0,2.07E2,1.11E3,6.19E2,1.084E3,1.11E3,6E0,1.1E1,4E1,6.1E2,1.079E3,1.2E1,2.8E1,2.9E1,1.11E3,2.015E3,1.4E1,7.8E2,2E0,1E0,1.2E1,1.265E3,2.015E3,1.092E3,7.24E2,2.073E3,9.1E2,-5.0296338E2,-5.7277637E2,-4.8911337E2,-3.5241714E2,-7.612925E1,-2.0631355E2,-5.0803287E2,-2.3556946E2,-2.5358261E2,-3.6645856E2,-3.2922672E1,-2.2335152E2,-4.3070703E2,-1.6821156E2,-3.2993744E2,-5.584345E2,-2.2223572E2,-1.323935E2,-3.4388007E2,-1.2889973E2,-5.5174416E1,5.4747894E2,-1.8225504E2,1.3207988E2,-1.2346747E2,8.63331E1,1.4579668E0,1.8653894E2,2.392117E1,2.5710938E2,3.9433148E2,1.2417837E3,9.173466E1,2.5065744E2,3.4019775E2,6.051202E2,2.7823773E2,4.8112714E2,9.466289E2,5.2985583E2,3.129278E2,7.8088995E2,1.00819666E3,1.6388243E3,3.7288794E2,6.208289E2,8.2374286E2,1.2698296E3,8.747026E2,-1.1631726E3,2.1397883E3,9.2364886E2,1.5477452E3,2.696912E3,1.5313378E3,5.863752E2],"split_indices":[3,3,3,4,3,3,3,0,1,2,5,5,9,2,5,3,1,1,3,7,1,2,8,8,7,3,9,3,2,1,5,3,1,1,1,1,2,8,1,1,1,8,9,9,1,7,9,3,2,5,8,3,7,1,1,3,1,0,0,0,0,0,0,0,0,0,0,0,0,0,0,0,0,0,0,0,0,0,0,0,0,0,0,0,0,0,0,0,0,0,0,0,0,0,0,0,0,0,0,0,0,0,0,0,0,0,0,0,0,0,0,0,0],"split_type":[0,0,0,0,0,0,0,0,0,0,0,0,0,0,0,0,0,0,0,0,0,0,0,0,0,0,0,0,0,0,0,0,0,0,0,0,0,0,0,0,0,0,0,0,0,0,0,0,0,0,0,0,0,0,0,0,0,0,0,0,0,0,0,0,0,0,0,0,0,0,0,0,0,0,0,0,0,0,0,0,0,0,0,0,0,0,0,0,0,0,0,0,0,0,0,0,0,0,0,0,0,0,0,0,0,0,0,0,0,0,0,0,0],"sum_hessian":[5.12672E5,1.91478E5,3.21194E5,9.0305E4,1.01173E5,2.24556E5,9.6638E4,8.704E4,3.265E3,2.4892E4,7.6281E4,8.6462E4,1.38094E5,8.4965E4,1.1673E4,3.16E3,1.05E2,1.4918E4,9.974E3,5.4382E4,2.1899E4,5.0935E4,3.5527E4,1.2674E5,1.1354E4,2.0037E4,6.4928E4,5.583E3,6.09E3,1.638E3,1.522E3,4.6E1,5.9E1,1.3801E4,1.117E3,4.952E3,5.022E3,4.1897E4,1.2485E4,1.228E4,9.619E3,2.8942E4,2.1993E4,3.4267E4,1.26E3,1.19393E5,7.347E3,8.448E3,2.906E3,1.3202E4,6.835E3,6.0389E4,4.539E3,3.789E3,1.794E3,1.692E3,4.398E3,8.36E2,8.02E2,1.467E3,5.5E1,9E0,3.7E1,4.8E1,1.1E1,8.609E3,5.192E3,4.99E2,6.18E2,4.913E3,3.9E1,4.954E3,6.8E1,3.6476E4,5.421E3,4.5E2,1.2035E4,1.2016E4,2.64E2,8.826E3,7.93E2,2.7366E4,1.576E3,1.9442E4,2.551E3,3.1588E4,2.679E3,1.247E3,1.3E1,8.9729E4,2.9664E4,4.061E3,3.286E3,4.747E3,3.701E3,8.42E2,2.064E3,3.556E3,9.646E3,5.813E3,1.022E3,4.5452E4,1.4937E4,3.358E3,1.181E3,3.54E3,2.49E2,7.9E2,1.004E3,8.53E2,8.39E2,3.843E3,5.55E2],"tree_param":{"num_deleted":"0","num_feature":"14","num_nodes":"113","size_leaf_vector":"1"}},{"base_weights":[8.385238E-2,-5.0453348E2,2.361026E2,-7.1887384E2,-2.4991766E2,4.8647594E1,6.0271466E2,-3.6119724E2,-5.340626E2,-4.0631857E2,-2.1627478E2,-4.070539E1,1.5776521E2,4.8758722E2,1.1679358E3,-6.44929E2,-5.133241E2,-4.2652692E2,-2.290799E2,-1.711346E2,-2.735478E2,-9.965995E1,1.1124981E2,1.9890163E1,2.4719635E2,2.556485E2,6.4356256E2,9.64031E2,1.869321E3,-4.9096234E2,-8.151974E2,-1.6377579E2,-5.464349E2,-4.9161417E2,-3.8434128E2,-1.6187398E2,-4.0109018E2,-1.8362262E2,5.045335E2,-5.3791034E2,-2.4048701E2,-5.0009014E1,-2.3011807E2,1.22015755E2,-1.4142428E3,-4.1609993E1,1.9454251E2,3.2560294E2,4.1392483E1,7.635929E1,4.7076932E2,8.417918E2,4.607594E2,1.0856305E3,-2.4120881E3,5.741988E3,1.0311155E3,-4.392191E2,-2.252423E2,-4.7370663E2,-3.00793E2,-1.24397156E2,-1.9435661E1,-2.7612582E2,-1.1582298E2,-3.3126273E2,-2.4070505E2,-2.2030972E2,-1.802809E2,-1.06610985E2,2.0406105E2,-5.504616E2,-1.7750424E2,-1.1370543E2,-3.779413E1,2.1238667E2,3.7909467E2,-2.452369E2,-7.722498E2,-2.3679707E1,-1.4341103E2,-3.0500885E1,4.4850412E2,-4.8385974E2,-1.08132126E2,3.6202423E1,1.7855545E2,-5.229057E2,-9.138264E2,-3.1341835E1,2.076666E2,1.4843602E2,2.8929428E1,1.556105E2,9.0731036E2,-6.528634E2,3.491348E1,-3.5817049E0,3.6864203E2,2.5163033E2,-5.966149E2,3.9100848E2,8.703806E2,5.590295E2,2.0328008E2,4.0297424E2,1.0165889E3,2.1854395E3,-1.8726427E3,3.0363877E3,1.4036544E3,3.925813E2,1.5836525E3],"categories":[],"categories_nodes":[],"categories_segments":[],"categories_sizes":[],"default_left":[0,0,0,0,0,0,0,0,0,0,0,0,0,0,0,0,0,0,0,0,0,0,0,0,0,0,0,0,0,0,0,0,0,0,0,0,0,0,0,0,0,0,0,0,0,0,0,0,0,0,0,0,0,0,0,0,0,0,0,0,0,0,0,0,0,0,0,0,0,0,0,0,0,0,0,0,0,0,0,0,0,0,0,0,0,0,0,0,0,0,0,0,0,0,0,0,0,0,0,0,0,0,0,0,0,0,0,0,0,0,0,0,0],"id":3,"left_children":[1,3,5,7,9,11,13,-1,15,17,19,21,23,25,27,29,31,33,35,37,39,41,43,45,47,49,51,53,55,57,59,61,63,65,67,69,71,73,75,77,79,81,83,85,87,89,91,93,95,97,99,101,103,105,107,109,111,-1,-1,-1,-1,-1,-1,-1,-1,-1,-1,-1,-1,-1,-1,-1,-1,-1,-1,-1,-1,-1,-1,-1,-1,-1,-1,-1,-1,-1,-1,-1,-1,-1,-1,-1,-1,-1,-1,-1,-1,-1,-1,-1,-1,-1,-1,-1,-1,-1,-1,-1,-1,-1,-1,-1,-1],"loss_changes":[6.1059043E10,8.915862E9,2.4005007E10,5.733171E7,3.9282534E8,2.2534618E9,7.6894986E9,0E0,3.490208E6,4.7245056E7,1.5883622E8,1.1383706E9,1.2830147E9,3.551703E9,2.8580844E9,6.363416E6,1.6171744E7,3.238656E7,1.5599024E7,2.901068E8,2.3660326E8,5.930045E8,5.8353075E8,4.3975062E8,1.01843405E9,1.5226235E9,2.1268296E9,6.363853E9,1.4611229E10,1.768684E6,2.847424E6,1.2964895E6,2.221312E6,7.811456E6,9.48064E6,2.8652742E7,1.1863972E7,1.5963226E8,1.230248E7,1.429673E8,2.1544128E8,6.9041574E8,2.5768794E8,4.1136154E8,3.601459E7,2.9159683E8,1.4910986E8,9.7816166E8,6.6708966E8,1.18873E9,9.708608E8,1.5119421E9,1.0876083E9,3.9621448E9,4.8905656E9,7.605248E8,1.9430766E9,0E0,0E0,0E0,0E0,0E0,0E0,0E0,0E0,0E0,0E0,0E0,0E0,0E0,0E0,0E0,0E0,0E0,0E0,0E0,0E0,0E0,0E0,0E0,0E0,0E0,0E0,0E0,0E0,0E0,0E0,0E0,0E0,0E0,0E0,0E0,0E0,0E0,0E0,0E0,0E0,0E0,0E0,0E0,0E0,0E0,0E0,0E0,0E0,0E0,0E0,0E0,0E0,0E0,0E0,0E0,0E0],"parents":[2147483647,0,0,1,1,2,2,3,3,4,4,5,5,6,6,8,8,9,9,10,10,11,11,12,12,13,13,14,14,15,15,16,16,17,17,18,18,19,19,20,20,21,21,22,22,23,23,24,24,25,25,26,26,27,27,28,28,29,29,30,30,31,31,32,32,33,33,34,34,35,35,36,36,37,37,38,38,39,39,40,40,41,41,42,42,43,43,44,44,45,45,46,46,47,47,48,48,49,49,50,50,51,51,52,52,53,53,54,54,55,55,56,56],"right_children":[2,4,6,8,10,12,14,-1,16,18,20,22,24,26,28,30,32,34,36,38,40,42,44,46,48,50,52,54,56,58,60,62,64,66,68,70,72,74,76,78,80,82,84,86,88,90,92,94,96,98,100,102,104,106,108,110,112,-1,-1,-1,-1,-1,-1,-1,-1,-1,-1,-1,-1,-1,-1,-1,-1,-1,-1,-1,-1,-1,-1,-1,-1,-1,-1,-1,-1,-1,-1,-1,-1,-1,-1,-1,-1,-1,-1,-1,-1,-1,-1,-1,-1,-1,-1,-1,-1,-1,-1,-1,-1,-1,-1,-1,-1],"split_conditions":[4.73E2,2.07E2,8.62E2,1E0,3.24E2,1E0,1.468E3,-3.6119724E2,2.33E2,1E0,6.19E2,5E0,6.3E2,1E0,7.71E2,1.85E2,2.9E2,2.75E2,7.5E2,6.1E2,6.84E2,8.1E2,6E0,2.015E3,8.1E2,4E0,2E0,7.62E2,8.23E2,4E0,2.02E2,4E0,1.041E3,1E0,3.36E2,7.11E2,7.67E2,4.48E2,2.015E3,6.8E2,7.58E2,7.97E2,8.14E2,7.57E2,7.37E2,1.2E1,3E0,8.01E2,8.14E2,1.2E1,6E0,3E1,3E0,2.283E3,2.073E3,5E0,1.101E3,-4.392191E2,-2.252423E2,-4.7370663E2,-3.00793E2,-1.24397156E2,-1.9435661E1,-2.7612582E2,-1.1582298E2,-3.3126273E2,-2.4070505E2,-2.2030972E2,-1.802809E2,-1.06610985E2,2.0406105E2,-5.504616E2,-1.7750424E2,-1.1370543E2,-3.779413E1,2.1238667E2,3.7909467E2,-2.452369E2,-7.722498E2,-2.3679707E1,-1.4341103E2,-3.0500885E1,4.4850412E2,-4.8385974E2,-1.08132126E2,3.6202423E1,1.7855545E2,-5.229057E2,-9.138264E2,-3.1341835E1,2.076666E2,1.4843602E2,2.8929428E1,1.556105E2,9.0731036E2,-6.528634E2,3.491348E1,-3.5817049E0,3.6864203E2,2.5163033E2,-5.966149E2,3.9100848E2,8.703806E2,5.590295E2,2.0328008E2,4.0297424E2,1.0165889E3,2.1854395E3,-1.8726427E3,3.0363877E3,1.4036544E3,3.925813E2,1.5836525E3],"split_indices":[3,3,3,4,3,5,3,0,1,5,1,2,3,5,1,1,1,3,1,1,1,1,2,7,1,2,2,1,1,2,1,2,1,2,1,1,1,1,7,1,1,1,1,3,1,8,2,1,1,8,2,9,9,3,3,2,1,0,0,0,0,0,0,0,0,0,0,0,0,0,0,0,0,0,0,0,0,0,0,0,0,0,0,0,0,0,0,0,0,0,0,0,0,0,0,0,0,0,0,0,0,0,0,0,0,0,0,0,0,0,0,0,0],"split_type":[0,0,0,0,0,0,0,0,0,0,0,0,0,0,0,0,0,0,0,0,0,0,0,0,0,0,0,0,0,0,0,0,0,0,0,0,0,0,0,0,0,0,0,0,0,0,0,0,0,0,0,0,0,0,0,0,0,0,0,0,0,0,0,0,0,0,0,0,0,0,0,0,0,0,0,0,0,0,0,0,0,0,0,0,0,0,0,0,0,0,0,0,0,0,0,0,0,0,0,0,0,0,0,0,0,0,0,0,0,0,0,0,0],"sum_hessian":[5.12672E5,1.63373E5,3.49299E5,8.8701E4,7.4672E4,2.31123E5,1.18176E5,8.704E4,1.661E3,1.3217E4,6.1455E4,1.2707E5,1.04053E5,9.818E4,1.9996E4,2.57E2,1.404E3,1.1863E4,1.354E3,3.437E4,2.7085E4,9.1551E4,3.5519E4,4.0939E4,6.3114E4,3.9478E4,5.8702E4,1.5494E4,4.502E3,1.37E2,1.2E2,1.22E2,1.282E3,4.661E3,7.202E3,9.75E2,3.79E2,3.3747E4,6.23E2,3.009E3,2.4076E4,6.6314E4,2.5237E4,3.5271E4,2.48E2,3.0278E4,1.0661E4,4.5702E4,1.7412E4,2.1533E4,1.7945E4,2.8161E4,3.0541E4,1.4956E4,5.38E2,8E2,3.702E3,1.1E1,1.26E2,7.2E1,4.8E1,7.2E1,5E1,1.258E3,2.4E1,2.59E2,4.402E3,2.134E3,5.068E3,8.95E2,8E1,2.2E1,3.57E2,2.4013E4,9.734E3,4.76E2,1.47E2,2.875E3,1.34E2,4.659E3,1.9417E4,6.5554E4,7.6E2,4.64E2,2.4773E4,2.9126E4,6.145E3,1.33E2,1.15E2,2.8944E4,1.334E3,6.096E3,4.565E3,4.5266E4,4.36E2,3.59E2,1.7053E4,1.9118E4,2.415E3,1.7602E4,3.43E2,2.6407E4,1.754E3,2.325E3,2.8216E4,1.1549E4,3.407E3,8.8E1,4.5E2,7.18E2,8.2E1,3.321E3,3.81E2],"tree_param":{"num_deleted":"0","num_feature":"14","num_nodes":"113","size_leaf_vector":"1"}},{"base_weights":[5.1503953E-2,-1.24554596E2,2.5936505E2,-3.453949E2,-3.6664997E1,2.156456E2,7.5831476E2,-1.806007E2,-2.2613354E2,-8.365493E2,-3.2467556E1,1.545971E2,6.271591E2,2.1290465E2,1.1870565E3,-2.360832E2,-1.153641E2,-7.401809E2,-9.9142664E2,4.6113094E1,-8.170578E1,4.7018826E2,6.920743E1,4.991676E2,1.1716284E3,6.431616E2,-2.0280429E2,1.5353864E3,-2.3463842E1,-2.771116E2,-2.161345E2,-3.7898647E1,-2.2856189E2,-7.7258057E2,-4.1143576E2,-5.5816644E2,-8.4135425E2,-6.64379E0,3.01775E2,-3.5864822E2,-6.823604E1,4.0289264E2,9.84679E2,3.9385438E0,2.7629163E2,-2.215164E1,5.637894E2,8.4286334E2,1.4716892E3,5.4314307E2,1.3385023E3,-3.1376645E2,2.1716054E2,1.4191399E3,4.1342617E3,4.777137E2,-3.057627E2,-8.2554375E1,-1.737849E2,8.0017296E1,-1.20813545E2,-8.4623886E1,7.153553E1,-3.9025818E2,-5.422856E1,-4.0859433E2,-3.2536465E2,-2.2248282E2,-1.0055878E2,-4.5840997E2,-3.2111456E2,1.6562248E1,-1.0656833E2,2.58737E2,6.052387E1,-1.4534705E2,-5.0465063E2,2.6678867E2,-3.7764904E1,9.2381004E1,2.621896E2,6.28062E2,2.5952182E2,-3.1878238E0,6.105113E2,6.588127E1,1.9164273E2,-1.0826346E2,1.8381415E2,2.3327896E2,4.3133466E2,3.5146375E2,9.373558E2,6.5170306E2,1.2118607E3,2.4023944E2,4.9262567E2,5.504591E2,1.0247908E3,2.6002268E1,-2.364624E2,7.7029724E1,9.741529E2,4.6999374E2,8.823248E2,1.5009415E3,2.4370505E3,2.0697903E2,1.0742113E3,-2.0354099E2,4.1007703E2],"categories":[],"categories_nodes":[],"categories_segments":[],"categories_sizes":[],"default_left":[0,0,0,0,0,0,0,0,0,0,0,0,0,0,0,0,0,0,0,0,0,0,0,0,0,0,0,0,0,0,0,0,0,0,0,0,0,0,0,0,0,0,0,0,0,0,0,0,0,0,0,0,0,0,0,0,0,0,0,0,0,0,0,0,0,0,0,0,0,0,0,0,0,0,0,0,0,0,0,0,0,0,0,0,0,0,0,0,0,0,0,0,0,0,0,0,0,0,0,0,0,0,0,0,0,0,0,0,0,0,0],"id":4,"left_children":[1,3,5,7,9,11,13,-1,15,17,19,21,23,25,27,29,31,33,35,37,39,41,43,45,47,49,51,53,55,57,59,61,63,65,67,-1,69,71,73,75,77,79,81,83,85,87,89,91,93,95,97,99,101,103,105,107,109,-1,-1,-1,-1,-1,-1,-1,-1,-1,-1,-1,-1,-1,-1,-1,-1,-1,-1,-1,-1,-1,-1,-1,-1,-1,-1,-1,-1,-1,-1,-1,-1,-1,-1,-1,-1,-1,-1,-1,-1,-1,-1,-1,-1,-1,-1,-1,-1,-1,-1,-1,-1,-1,-1],"loss_changes":[1.6565548E10,6.7211116E9,3.6295444E9,1.8575053E8,8.316207E8,3.8433864E9,3.1343744E9,0E0,1.2690112E7,1.8564544E7,9.534025E8,3.5902262E9,1.3767183E9,1.05559315E9,3.1645962E9,8.605184E6,8.348117E6,8.213792E6,8.302048E6,1.2803027E9,5.650779E8,9.818916E8,1.4172758E9,5.3916544E8,3.6978022E8,2.0095923E8,1.3996194E8,1.7548319E9,2.3755262E8,2.7247232E7,6.839277E7,1.3501924E7,2.5570492E7,3.42528E6,4.32353E5,0E0,2.83736E6,6.46166E8,6.328993E8,3.1035827E8,6.34159E8,6.648133E8,4.14048E8,1.00087744E9,3.8853734E8,1.3387809E8,4.1339085E8,2.5815565E8,3.1165542E8,6.981267E7,5.9238144E7,1.3828645E8,6.830077E7,9.221192E8,1.9397504E8,6.3553504E7,1.22852664E8,0E0,0E0,0E0,0E0,0E0,0E0,0E0,0E0,0E0,0E0,0E0,0E0,0E0,0E0,0E0,0E0,0E0,0E0,0E0,0E0,0E0,0E0,0E0,0E0,0E0,0E0,0E0,0E0,0E0,0E0,0E0,0E0,0E0,0E0,0E0,0E0,0E0,0E0,0E0,0E0,0E0,0E0,0E0,0E0,0E0,0E0,0E0,0E0,0E0,0E0,0E0,0E0,0E0,0E0],"parents":[2147483647,0,0,1,1,2,2,3,3,4,4,5,5,6,6,8,8,9,9,10,10,11,11,12,12,13,13,14,14,15,15,16,16,17,17,18,18,19,19,20,20,21,21,22,22,23,23,24,24,25,25,26,26,27,27,28,28,29,29,30,30,31,31,32,32,33,33,34,34,36,36,37,37,38,38,39,39,40,40,41,41,42,42,43,43,44,44,45,45,46,46,47,47,48,48,49,49,50,50,51,51,52,52,53,53,54,54,55,55,56,56],"right_children":[2,4,6,8,10,12,14,-1,16,18,20,22,24,26,28,30,32,34,36,38,40,42,44,46,48,50,52,54,56,58,60,62,64,66,68,-1,70,72,74,76,78,80,82,84,86,88,90,92,94,96,98,100,102,104,106,108,110,-1,-1,-1,-1,-1,-1,-1,-1,-1,-1,-1,-1,-1,-1,-1,-1,-1,-1,-1,-1,-1,-1,-1,-1,-1,-1,-1,-1,-1,-1,-1,-1,-1,-1,-1,-1,-1,-1,-1,-1,-1,-1,-1,-1,-1,-1,-1,-1,-1,-1,-1,-1,-1,-1],"split_conditions":[7.57E2,3.07E2,1.2E1,1E0,6E0,2.8E1,1.5E1,-1.806007E2,1E0,1E0,4.18E2,6E0,1.305E3,6E0,2.4E1,3.36E2,5.45E2,6.89E2,6.25E2,3.45E2,4.48E2,1.507E3,2.015E3,2E0,3E1,1.507E3,1.3E1,2.283E3,1E0,1.67E2,4.09E2,3.28E2,7.11E2,5E0,2.015E3,-5.5816644E2,3E0,2.9E2,3.75E2,4.44E2,4.57E2,2.014E3,7E0,1.101E3,4E0,4E0,2.015E3,1.1E1,2.283E3,4E0,2.283E3,8.62E2,2.283E3,1.021E3,2.608E3,2.283E3,1.735E3,-8.2554375E1,-1.737849E2,8.0017296E1,-1.20813545E2,-8.4623886E1,7.153553E1,-3.9025818E2,-5.422856E1,-4.0859433E2,-3.2536465E2,-2.2248282E2,-1.0055878E2,-4.5840997E2,-3.2111456E2,1.6562248E1,-1.0656833E2,2.58737E2,6.052387E1,-1.4534705E2,-5.0465063E2,2.6678867E2,-3.7764904E1,9.2381004E1,2.621896E2,6.28062E2,2.5952182E2,-3.1878238E0,6.105113E2,6.588127E1,1.9164273E2,-1.0826346E2,1.8381415E2,2.3327896E2,4.3133466E2,3.5146375E2,9.373558E2,6.5170306E2,1.2118607E3,2.4023944E2,4.9262567E2,5.504591E2,1.0247908E3,2.6002268E1,-2.364624E2,7.7029724E1,9.741529E2,4.6999374E2,8.823248E2,1.5009415E3,2.4370505E3,2.0697903E2,1.0742113E3,-2.0354099E2,4.1007703E2],"split_indices":[3,3,8,4,1,9,9,0,5,5,1,9,3,9,9,1,1,3,3,1,1,3,7,8,9,3,9,3,2,1,1,1,1,2,7,0,2,1,1,1,1,7,8,1,8,2,7,8,3,2,3,3,3,3,3,3,3,0,0,0,0,0,0,0,0,0,0,0,0,0,0,0,0,0,0,0,0,0,0,0,0,0,0,0,0,0,0,0,0,0,0,0,0,0,0,0,0,0,0,0,0,0,0,0,0,0,0,0,0,0,0],"split_type":[0,0,0,0,0,0,0,0,0,0,0,0,0,0,0,0,0,0,0,0,0,0,0,0,0,0,0,0,0,0,0,0,0,0,0,0,0,0,0,0,0,0,0,0,0,0,0,0,0,0,0,0,0,0,0,0,0,0,0,0,0,0,0,0,0,0,0,0,0,0,0,0,0,0,0,0,0,0,0,0,0,0,0,0,0,0,0,0,0,0,0,0,0,0,0,0,0,0,0,0,0,0,0,0,0,0,0,0,0,0,0],"sum_hessian":[5.12672E5,3.46278E5,1.66394E5,9.8578E4,2.477E5,1.5299E5,1.3404E4,8.704E4,1.1538E4,1.292E3,2.46408E5,1.33227E5,1.9763E4,5.9E3,7.504E3,1.0586E4,9.52E2,8E2,4.92E2,9.4921E4,1.51487E5,2.837E4,1.04857E5,1.6003E4,3.76E3,2.899E3,3.001E3,5.827E3,1.677E3,3.459E3,7.127E3,5.66E2,3.86E2,7.27E2,7.3E1,2.65E2,2.27E2,7.8685E4,1.6236E4,7.025E3,1.44462E5,2.509E4,3.28E3,7.9729E4,2.5128E4,1.765E3,1.4238E4,1.796E3,1.964E3,2.536E3,3.63E2,2.374E3,6.27E2,5.579E3,2.48E2,6.04E2,1.073E3,1.337E3,2.122E3,4.52E2,6.675E3,3.28E2,2.38E2,6.8E1,3.18E2,5.28E2,1.99E2,6.2E1,1.1E1,1.62E2,6.5E1,6.5979E4,1.2706E4,7.401E3,8.835E3,6.362E3,6.63E2,1.729E3,1.42733E5,8.976E3,1.6114E4,2.071E3,1.209E3,7.906E4,6.69E2,1.069E4,1.4438E4,1.178E3,5.87E2,1.0745E4,3.493E3,1.583E3,2.13E2,1.671E3,2.93E2,2.223E3,3.13E2,2.74E2,8.9E1,7.2E2,1.654E3,6.06E2,2.1E1,2.339E3,3.24E3,1E2,1.48E2,5.83E2,2.1E1,9.85E2,8.8E1],"tree_param":{"num_deleted":"0","num_feature":"14","num_nodes":"111","size_leaf_vector":"1"}},{"base_weights":[5.002714E-2,-1.2864056E2,8.12692E1,-1.6614677E2,-6.4505745E1,4.456485E1,2.6817804E2,-9.0301384E1,-1.331405E2,-9.3165924E1,2.5614487E1,8.57465E1,-6.937481E1,4.8200696E2,1.14661156E2,-1.5456224E2,-5.3573074E1,-1.0369745E2,8.8674545E1,-2.901021E0,2.2265756E2,4.7869156E1,2.753439E2,-8.09232E1,6.474188E2,3.0216612E1,6.560161E2,-1.7097781E2,2.0739554E2,-1.5796019E2,2.865128E2,2.1933344E1,-9.703693E1,-1.19174835E2,4.8140602E1,2.6076083E2,-1.8332327E2,-4.5310795E1,9.435428E1,3.8982928E2,1.7568355E2,1.0327674E2,-5.6980675E1,4.1926324E2,1.3127296E2,-2.5907452E2,-5.2326782E1,4.0175763E2,2.8026387E3,-1.7303847E2,6.865458E2,5.6317535E2,1.3001667E3,3.938039E1,-4.971902E3,1.3162235E3,1.20927345E2,-1.1645286E2,-7.054451E1,2.1746667E2,9.203635E0,1.799584E2,-1.8561852E-1,-6.0194103E1,2.0023714E1,-2.0973606E1,-7.697416E1,8.924238E0,1.1630453E2,1.0682299E2,2.9233426E2,2.0463867E2,-1.1399642E2,-4.940106E1,1.3624216E1,3.7983986E1,2.941812E2,-1.0679593E2,2.5596394E2,5.263192E0,1.02361824E2,2.9951216E1,1.7279109E2,-1.3123207E2,7.8560047E0,1.9237637E2,5.0450305E2,-1.1796168E2,2.0569592E2,-1.7754219E2,5.0997356E1,5.965289E2,-3.5490986E1,3.561351E2,6.3732685E1,1.517611E3,7.032458E2,-1.5557045E2,1.2738225E2,-2.315996E2,4.7437512E2,2.717124E2,2.0131616E3,7.654755E2,-1.0499968E3,-3.5571556E1,1.4870718E3,-2.7134111E3,-1.7529023E3,8.570975E1,8.893515E2,-4.4268658E2,8.040565E1],"categories":[],"categories_nodes":[],"categories_segments":[],"categories_sizes":[],"default_left":[0,0,0,0,0,0,0,0,0,0,0,0,0,0,0,0,0,0,0,0,0,0,0,0,0,0,0,0,0,0,0,0,0,0,0,0,0,0,0,0,0,0,0,0,0,0,0,0,0,0,0,0,0,0,0,0,0,0,0,0,0,0,0,0,0,0,0,0,0,0,0,0,0,0,0,0,0,0,0,0,0,0,0,0,0,0,0,0,0,0,0,0,0,0,0,0,0,0,0,0,0,0,0,0,0,0,0,0,0,0,0,0,0],"id":5,"left_children":[1,3,5,7,9,11,13,-1,15,17,19,21,23,25,27,29,31,33,35,37,39,41,43,45,47,49,51,53,55,57,59,61,63,65,67,69,71,73,75,77,79,81,83,85,87,89,91,93,95,97,99,101,103,105,107,109,111,-1,-1,-1,-1,-1,-1,-1,-1,-1,-1,-1,-1,-1,-1,-1,-1,-1,-1,-1,-1,-1,-1,-1,-1,-1,-1,-1,-1,-1,-1,-1,-1,-1,-1,-1,-1,-1,-1,-1,-1,-1,-1,-1,-1,-1,-1,-1,-1,-1,-1,-1,-1,-1,-1,-1,-1],"loss_changes":[5.3585423E9,4.7714944E8,2.1562568E9,5.969792E7,1.890679E8,1.2327374E9,1.6934889E9,0E0,6.497824E7,1.0636765E8,9.924521E7,1.3858047E9,5.7740486E8,1.694934E9,7.955397E8,4.506611E7,2.6548608E7,1.2337894E8,1.4238818E8,6.3650596E7,1.7466648E7,9.344079E8,6.661888E8,3.4968243E8,5.8445005E8,7.999986E8,9.301084E8,7.434171E9,2.1735946E9,3.765939E7,9.144238E6,2.2284172E7,1.643924E7,1.2793491E8,2.7136478E7,2.8306064E7,3.130288E7,4.1711024E7,4.2518176E7,3.6137344E7,8.36718E6,1.1059497E9,8.306588E8,3.267548E8,1.6519037E9,3.291572E8,1.3742865E9,8.456938E7,3.2424384E7,2.7060947E8,4.279214E8,9.284521E8,1.5412339E9,2.287925E9,1.8706483E8,8.679905E8,8.443069E8,0E0,0E0,0E0,0E0,0E0,0E0,0E0,0E0,0E0,0E0,0E0,0E0,0E0,0E0,0E0,0E0,0E0,0E0,0E0,0E0,0E0,0E0,0E0,0E0,0E0,0E0,0E0,0E0,0E0,0E0,0E0,0E0,0E0,0E0,0E0,0E0,0E0,0E0,0E0,0E0,0E0,0E0,0E0,0E0,0E0,0E0,0E0,0E0,0E0,0E0,0E0,0E0,0E0,0E0,0E0,0E0],"parents":[2147483647,0,0,1,1,2,2,3,3,4,4,5,5,6,6,8,8,9,9,10,10,11,11,12,12,13,13,14,14,15,15,16,16,17,17,18,18,19,19,20,20,21,21,22,22,23,23,24,24,25,25,26,26,27,27,28,28,29,29,30,30,31,31,32,32,33,33,34,34,35,35,36,36,37,37,38,38,39,39,40,40,41,41,42,42,43,43,44,44,45,45,46,46,47,47,48,48,49,49,50,50,51,51,52,52,53,53,54,54,55,55,56,56],"right_children":[2,4,6,8,10,12,14,-1,16,18,20,22,24,26,28,30,32,34,36,38,40,42,44,46,48,50,52,54,56,58,60,62,64,66,68,70,72,74,76,78,80,82,84,86,88,90,92,94,96,98,100,102,104,106,108,110,112,-1,-1,-1,-1,-1,-1,-1,-1,-1,-1,-1,-1,-1,-1,-1,-1,-1,-1,-1,-1,-1,-1,-1,-1,-1,-1,-1,-1,-1,-1,-1,-1,-1,-1,-1,-1,-1,-1,-1,-1,-1,-1,-1,-1,-1,-1,-1,-1,-1,-1,-1,-1,-1,-1,-1,-1],"split_conditions":[5.27E2,3.99E2,1.115E3,1E0,2.015E3,8.27E2,2E0,-9.0301384E1,2.015E3,1.2E1,2.7E1,6.84E2,1.11E3,1E0,3.54E2,1.11E3,3E0,2.8E1,2.1E1,1E0,2E0,4.36E2,7.58E2,8.66E2,8.88E2,1.2E1,1.925E3,3.5E2,4E2,2.24E2,5E0,5.8E1,2.7E1,1.1E1,3.1E1,1.5E1,1E0,5E0,1.079E3,2E0,4.24E2,3.66E2,5.05E2,7.54E2,7.89E2,9.13E2,8.7E2,1E0,1.2E1,7.71E2,1E0,1.101E3,1.045E3,3.137E3,6E0,3.79E2,4.26E2,-1.1645286E2,-7.054451E1,2.1746667E2,9.203635E0,1.799584E2,-1.8561852E-1,-6.0194103E1,2.0023714E1,-2.0973606E1,-7.697416E1,8.924238E0,1.1630453E2,1.0682299E2,2.9233426E2,2.0463867E2,-1.1399642E2,-4.940106E1,1.3624216E1,3.7983986E1,2.941812E2,-1.0679593E2,2.5596394E2,5.263192E0,1.02361824E2,2.9951216E1,1.7279109E2,-1.3123207E2,7.8560047E0,1.9237637E2,5.0450305E2,-1.1796168E2,2.0569592E2,-1.7754219E2,5.0997356E1,5.965289E2,-3.5490986E1,3.561351E2,6.3732685E1,1.517611E3,7.032458E2,-1.5557045E2,1.2738225E2,-2.315996E2,4.7437512E2,2.717124E2,2.0131616E3,7.654755E2,-1.0499968E3,-3.5571556E1,1.4870718E3,-2.7134111E3,-1.7529023E3,8.570975E1,8.893515E2,-4.4268658E2,8.040565E1],"split_indices":[3,3,3,4,7,1,2,0,7,8,9,1,1,5,1,1,2,9,9,5,2,1,1,1,3,8,3,1,1,1,2,1,9,9,9,9,2,8,1,8,3,1,1,1,1,3,1,5,8,1,6,1,1,3,2,1,1,0,0,0,0,0,0,0,0,0,0,0,0,0,0,0,0,0,0,0,0,0,0,0,0,0,0,0,0,0,0,0,0,0,0,0,0,0,0,0,0,0,0,0,0,0,0,0,0,0,0,0,0,0,0,0,0],"split_type":[0,0,0,0,0,0,0,0,0,0,0,0,0,0,0,0,0,0,0,0,0,0,0,0,0,0,0,0,0,0,0,0,0,0,0,0,0,0,0,0,0,0,0,0,0,0,0,0,0,0,0,0,0,0,0,0,0,0,0,0,0,0,0,0,0,0,0,0,0,0,0,0,0,0,0,0,0,0,0,0,0,0,0,0,0,0,0,0,0,0,0,0,0,0,0,0,0,0,0,0,0,0,0,0,0,0,0,0,0,0,0,0,0],"sum_hessian":[5.12672E5,1.98365E5,3.14307E5,1.25166E5,7.3199E4,2.62717E5,5.159E4,8.704E4,3.8126E4,5.5537E4,1.7662E4,1.92971E5,6.9746E4,2.1559E4,3.0031E4,3.0038E4,8.088E3,5.2497E4,3.04E3,1.543E4,2.232E3,1.6084E5,3.2131E4,6.8641E4,1.105E3,5.995E3,1.5564E4,7.36E3,2.2671E4,2.9809E4,2.29E2,2.955E3,5.133E3,4.7641E4,4.856E3,1.862E3,1.178E3,1.0745E4,4.685E3,4.88E2,1.744E3,1.05231E5,5.5609E4,1.6073E4,1.6058E4,9.493E3,5.9148E4,9.93E2,1.12E2,4.578E3,1.417E3,1.3605E4,1.959E3,7.052E3,3.08E2,1.639E3,2.1032E4,5.475E3,2.4334E4,1.47E2,8.2E1,1.82E2,2.773E3,4.386E3,7.47E2,1.4792E4,3.2849E4,4.172E3,6.84E2,1.627E3,2.35E2,8.2E1,1.096E3,6.185E3,4.56E3,4.518E3,1.67E2,8.2E1,4.06E2,2.61E2,1.483E3,8.9255E4,1.5976E4,1.4531E4,4.1078E4,1.5186E4,8.87E2,6.949E3,9.109E3,7.499E3,1.994E3,8.72E2,5.8276E4,4.65E2,5.28E2,9.5E1,1.7E1,3.461E3,1.117E3,2.63E2,1.154E3,1.3529E4,7.6E1,1.835E3,1.24E2,6.797E3,2.55E2,2.33E2,7.5E1,4.72E2,1.167E3,8.01E2,2.0231E4],"tree_param":{"num_deleted":"0","num_feature":"14","num_nodes":"113","size_leaf_vector":"1"}},{"base_weights":[3.462972E-2,-4.526188E1,7.33835E1,-6.2160927E1,7.137514E1,2.5270595E2,2.844644E1,-9.282934E1,2.654601E1,-6.008286E1,1.9917766E2,2.0316757E2,5.2106836E2,1.7927532E1,6.227388E2,-1.01396965E2,7.8056274E1,-6.20392E1,1.168585E2,-5.0577156E1,-3.0975735E2,7.303648E1,3.312275E2,1.8497198E2,5.9191187E2,5.0306412E2,2.8839568E3,-8.252093E0,2.0963657E2,8.148315E2,4.8793307E2,-4.320183E1,-1.3218604E2,-6.567218E1,1.4810228E2,-8.997084E1,-3.074583E1,3.7113992E2,6.924697E1,-4.514789E1,1.3445696E1,-3.156764E2,3.4246396E2,-2.6159346E1,2.839249E2,2.8619498E2,1.0265214E3,6.587553E1,2.5722385E2,2.8537433E2,9.4056244E2,5.28709E2,-1.580621E3,2.4507969E3,2.027685E3,-1.10848274E2,5.2784508E1,1.7592747E2,8.348702E2,7.52027E2,1.932566E3,1.303016E2,5.342475E2,2.0582014E1,-3.0945538E1,-6.3035572E1,-2.206989E2,7.2416916E0,-4.4221264E1,1.6417038E1,1.3108989E2,-4.5149303E1,-3.623917E1,-2.3586151E1,3.5915443E1,1.5072672E2,3.5427267E2,1.2318157E1,1.8154457E2,-1.0456167E1,6.61886E1,-2.1102549E1,-1.6522546E2,5.7683815E1,3.034016E2,2.2256813E1,-1.4434094E2,1.5316083E2,-2.5359343E2,1.5828734E2,-3.294278E2,8.088244E2,3.3314984E2,8.2385574E1,-5.1446896E1,1.5365831E2,1.9160819E-1,2.2740775E2,9.641676E0,3.8758194E2,8.573366E2,2.2934514E2,6.189021E2,3.7676575E2,-2.514581E3,4.5960187E2,1.2952646E3,-6.7455414E1,1.6013802E1,4.680705E1,-8.053932E1,2.8347446E1,1.5494109E2,1.1907461E2,4.8604282E2,2.8746362E2,4.6319592E2,7.482755E2,1.9596923E3,2.0500073E2,-1.4135716E1,4.6008734E2,2.4794923E2],"categories":[],"categories_nodes":[],"categories_segments":[],"categories_sizes":[],"default_left":[0,0,0,0,0,0,0,0,0,0,0,0,0,0,0,0,0,0,0,0,0,0,0,0,0,0,0,0,0,0,0,0,0,0,0,0,0,0,0,0,0,0,0,0,0,0,0,0,0,0,0,0,0,0,0,0,0,0,0,0,0,0,0,0,0,0,0,0,0,0,0,0,0,0,0,0,0,0,0,0,0,0,0,0,0,0,0,0,0,0,0,0,0,0,0,0,0,0,0,0,0,0,0,0,0,0,0,0,0,0,0,0,0,0,0,0,0,0,0,0,0,0,0],"id":6,"left_children":[1,3,5,7,9,11,13,15,17,19,21,23,25,27,29,31,33,35,37,39,41,43,45,47,49,51,53,55,57,59,61,63,65,67,69,71,73,75,77,-1,79,81,83,85,87,89,91,93,95,97,99,101,103,-1,105,107,109,111,113,115,117,119,121,-1,-1,-1,-1,-1,-1,-1,-1,-1,-1,-1,-1,-1,-1,-1,-1,-1,-1,-1,-1,-1,-1,-1,-1,-1,-1,-1,-1,-1,-1,-1,-1,-1,-1,-1,-1,-1,-1,-1,-1,-1,-1,-1,-1,-1,-1,-1,-1,-1,-1,-1,-1,-1,-1,-1,-1,-1,-1,-1,-1],"loss_changes":[1.7033325E9,6.247204E8,1.5772209E9,7.5313504E8,6.738866E8,5.2129408E8,9.783806E8,3.011918E8,5.690082E8,4.691221E7,3.3874426E8,2.3409178E8,2.585239E8,7.718488E8,7.008909E7,3.509925E8,9.889374E7,3.1380912E7,4.2634902E8,4.8440896E7,2.906992E6,2.1763038E8,3.1081088E8,2.721659E8,1.5790589E8,3.249774E8,6.95328E7,8.473462E8,3.8929658E8,7.723949E7,2.6465152E7,1.0687676E8,2.4217984E8,5.876503E6,8.683075E7,1.02224E5,2.8538418E7,1.3037542E8,3.8885446E8,0E0,2.9807894E7,2.891104E6,3.5020788E5,1.31295624E8,5.9122064E7,2.6816218E8,1.2753613E8,1.9938554E8,2.5329024E8,3.5564684E7,8.727232E7,2.969842E8,5.994467E8,0E0,1.883144E7,1.7352838E8,7.408332E8,2.8003136E8,7.714445E7,3.22928E7,4.524512E7,8.21687E6,2.0529984E7,0E0,0E0,0E0,0E0,0E0,0E0,0E0,0E0,0E0,0E0,0E0,0E0,0E0,0E0,0E0,0E0,0E0,0E0,0E0,0E0,0E0,0E0,0E0,0E0,0E0,0E0,0E0,0E0,0E0,0E0,0E0,0E0,0E0,0E0,0E0,0E0,0E0,0E0,0E0,0E0,0E0,0E0,0E0,0E0,0E0,0E0,0E0,0E0,0E0,0E0,0E0,0E0,0E0,0E0,0E0,0E0,0E0,0E0,0E0,0E0],"parents":[2147483647,0,0,1,1,2,2,3,3,4,4,5,5,6,6,7,7,8,8,9,9,10,10,11,11,12,12,13,13,14,14,15,15,16,16,17,17,18,18,19,19,20,20,21,21,22,22,23,23,24,24,25,25,26,26,27,27,28,28,29,29,30,30,31,31,32,32,33,33,34,34,35,35,36,36,37,37,38,38,40,40,41,41,42,42,43,43,44,44,45,45,46,46,47,47,48,48,49,49,50,50,51,51,52,52,54,54,55,55,56,56,57,57,58,58,59,59,60,60,61,61,62,62],"right_children":[2,4,6,8,10,12,14,16,18,20,22,24,26,28,30,32,34,36,38,40,42,44,46,48,50,52,54,56,58,60,62,64,66,68,70,72,74,76,78,-1,80,82,84,86,88,90,92,94,96,98,100,102,104,-1,106,108,110,112,114,116,118,120,122,-1,-1,-1,-1,-1,-1,-1,-1,-1,-1,-1,-1,-1,-1,-1,-1,-1,-1,-1,-1,-1,-1,-1,-1,-1,-1,-1,-1,-1,-1,-1,-1,-1,-1,-1,-1,-1,-1,-1,-1,-1,-1,-1,-1,-1,-1,-1,-1,-1,-1,-1,-1,-1,-1,-1,-1,-1,-1,-1,-1],"split_conditions":[1E0,1.1E1,1E0,2.015E3,5.22E2,1.247E3,3.1E1,3E1,5.14E2,3.1E1,2E1,1.2E1,1.106E3,1.1E1,6E0,1.2E1,4.27E2,2.07E2,9E0,1E0,7.00979E5,5E0,1.735E3,2.014E3,3E0,1.097E3,1.664E3,2.014E3,2.7E1,1.607E3,5.44E2,3E0,1.607E3,5E0,4E0,1E0,2.6E1,1.086E3,2.7E1,-4.514789E1,2.5E1,2.39E2,7.03708E5,9.8E2,6E0,3.1E1,1E0,1.9E1,9E0,9.28E2,1.115E3,2.283E3,1.821E3,2.4507969E3,2.4723E5,2.7E1,8E0,1.2E1,6.15E2,1E0,5.97769E5,3E0,1E0,2.0582014E1,-3.0945538E1,-6.3035572E1,-2.206989E2,7.2416916E0,-4.4221264E1,1.6417038E1,1.3108989E2,-4.5149303E1,-3.623917E1,-2.3586151E1,3.5915443E1,1.5072672E2,3.5427267E2,1.2318157E1,1.8154457E2,-1.0456167E1,6.61886E1,-2.1102549E1,-1.6522546E2,5.7683815E1,3.034016E2,2.2256813E1,-1.4434094E2,1.5316083E2,-2.5359343E2,1.5828734E2,-3.294278E2,8.088244E2,3.3314984E2,8.2385574E1,-5.1446896E1,1.5365831E2,1.9160819E-1,2.2740775E2,9.641676E0,3.8758194E2,8.573366E2,2.2934514E2,6.189021E2,3.7676575E2,-2.514581E3,4.5960187E2,1.2952646E3,-6.7455414E1,1.6013802E1,4.680705E1,-8.053932E1,2.8347446E1,1.5494109E2,1.1907461E2,4.8604282E2,2.8746362E2,4.6319592E2,7.482755E2,1.9596923E3,2.0500073E2,-1.4135716E1,4.6008734E2,2.4794923E2],"split_indices":[5,8,2,7,3,3,9,9,3,9,9,8,1,8,8,9,3,3,9,4,0,2,3,7,9,1,3,7,9,3,3,9,3,2,2,4,9,3,9,0,9,3,0,3,2,9,2,9,8,3,3,3,3,0,0,9,8,8,3,6,0,2,6,0,0,0,0,0,0,0,0,0,0,0,0,0,0,0,0,0,0,0,0,0,0,0,0,0,0,0,0,0,0,0,0,0,0,0,0,0,0,0,0,0,0,0,0,0,0,0,0,0,0,0,0,0,0,0,0,0,0,0,0],"split_type":[0,0,0,0,0,0,0,0,0,0,0,0,0,0,0,0,0,0,0,0,0,0,0,0,0,0,0,0,0,0,0,0,0,0,0,0,0,0,0,0,0,0,0,0,0,0,0,0,0,0,0,0,0,0,0,0,0,0,0,0,0,0,0,0,0,0,0,0,0,0,0,0,0,0,0,0,0,0,0,0,0,0,0,0,0,0,0,0,0,0,0,0,0,0,0,0,0,0,0,0,0,0,0,0,0,0,0,0,0,0,0,0,0,0,0,0,0,0,0,0,0,0,0],"sum_hessian":[5.12672E5,3.16944E5,1.95728E5,2.76835E5,4.0109E4,3.9219E4,1.56509E5,2.05714E5,7.1121E4,1.9772E4,2.0337E4,3.3109E4,6.11E3,1.53788E5,2.721E3,1.95893E5,9.821E3,3.5904E4,3.5217E4,1.9048E4,7.24E2,1.0402E4,9.935E3,3.163E4,1.479E3,6.065E3,4.5E1,1.35311E5,1.8477E4,1.12E3,1.601E3,6.7781E4,1.28112E5,3.218E3,6.603E3,1.897E4,1.6934E4,5.553E3,2.9664E4,1.1755E4,7.293E3,7.18E2,6E0,7.075E3,3.327E3,9.332E3,6.03E2,1.1944E4,1.9686E4,7.88E2,6.91E2,5.992E3,7.3E1,1.2E1,3.3E1,5.0472E4,8.4839E4,1.7533E4,9.44E2,1.062E3,5.8E1,1.84E2,1.417E3,1.2292E4,5.5489E4,1.25629E5,2.483E3,7.12E2,2.506E3,3.285E3,3.318E3,1.8617E4,3.53E2,1.4597E4,2.337E3,4.604E3,9.49E2,2.5755E4,3.909E3,5.659E3,1.634E3,3.7E1,6.81E2,4E0,2E0,5.575E3,1.5E3,3.236E3,9.1E1,9.042E3,2.9E2,2.27E2,3.76E2,7.531E3,4.413E3,1.6473E4,3.213E3,4.81E2,3.07E2,5.71E2,1.2E2,5.455E3,5.37E2,4.4E1,2.9E1,1.2E1,2.1E1,4.3197E4,7.275E3,7.1239E4,1.36E4,9.277E3,8.256E3,1.77E2,7.67E2,5.29E2,5.33E2,4.9E1,9E0,6.6E1,1.18E2,1.26E2,1.291E3],"tree_param":{"num_deleted":"0","num_feature":"14","num_nodes":"123","size_leaf_vector":"1"}},{"base_weights":[3.8818844E-2,-3.0488324E2,5.1642046E0,-6.3326637E1,-4.0214307E2,2.1744093E2,-4.3891964E0,-9.541349E1,3.09741E2,-3.724824E2,-7.1442773E2,-5.766589E0,6.085216E2,1.12504845E2,-1.2601298E1,-4.2729973E1,-2.8271722E2,-1.1000974E2,6.1429297E2,-2.9241046E2,-4.4832455E2,-2.181232E2,-9.4054425E2,5.424999E1,-3.9671927E2,4.5000867E2,2.4034731E3,-5.3596676E1,2.2255319E2,-2.5071262E1,7.957663E1,7.441231E1,-6.5553955E1,-1.7403296E2,-6.181881E2,-1.19375656E2,-2.0777763E1,-5.528399E2,7.468801E2,-3.7609213E2,7.543579E1,-6.118304E2,-3.4874252E2,-6.211417E2,1.0057006E2,-1.0421958E3,-5.4429764E1,-8.293205E1,2.912083E2,1.2445743E1,-8.935423E2,1.0548491E3,2.568224E2,2.2971814E3,9.600471E3,-8.5722374E1,2.2489021E1,3.5546658E2,7.988104E1,4.447785E0,-6.9133896E1,-9.920523E0,1.3834471E2,-2.8573761E1,1.324658E2,-2.1857424E1,-9.452202E1,-1.1980515E2,1.4296037E2,-3.4488315E2,-2.4616878E2,-2.8395226E1,-6.923911E1,-2.9662727E1,-4.27181E0,-4.205274E2,-6.2224567E1,2.9298608E2,4.596428E2,-1.4317427E2,-2.3436949E2,-1.01223526E2,1.4325883E2,-1.1478498E2,-4.1258072E2,-2.0007047E2,-8.0627525E1,-1.8029599E2,-5.690364E2,-5.165905E1,1.3165746E2,-6.2566754E2,-2.2686415E2,-5.2629645E2,2.5335938E2,5.4337273E1,-8.873766E1,9.93416E1,3.1530823E2,-4.5547318E1,5.6071007E1,-2.6781583E2,-4.9654318E2,1.1466757E2,8.951351E2,5.890274E1,4.2980472E2,9.649284E2,1.5644578E3,2.7975818E3,5.8428423E3,-4.701589E1,-2.1762827E1,-3.0142978E2,1.350968E1,5.508233E1,2.706846E2,6.766879E1,-4.4077806E0,2.477848E1,-1.4711618E1,-4.345999E1,2.8845285E1,-1.8462503E1,1.7892942E1,1.00366234E2,-9.17729E-1],"categories":[],"categories_nodes":[],"categories_segments":[],"categories_sizes":[],"default_left":[0,0,0,0,0,0,0,0,0,0,0,0,0,0,0,0,0,0,0,0,0,0,0,0,0,0,0,0,0,0,0,0,0,0,0,0,0,0,0,0,0,0,0,0,0,0,0,0,0,0,0,0,0,0,0,0,0,0,0,0,0,0,0,0,0,0,0,0,0,0,0,0,0,0,0,0,0,0,0,0,0,0,0,0,0,0,0,0,0,0,0,0,0,0,0,0,0,0,0,0,0,0,0,0,0,0,0,0,0,0,0,0,0,0,0,0,0,0,0,0,0,0,0,0,0,0,0],"id":7,"left_children":[1,3,5,7,9,11,13,15,17,19,21,23,25,27,29,31,33,35,37,39,41,43,45,47,49,51,53,55,57,59,61,63,65,67,69,71,73,75,77,79,81,83,85,87,89,91,93,95,97,99,101,103,105,107,109,111,113,115,117,119,121,123,125,-1,-1,-1,-1,-1,-1,-1,-1,-1,-1,-1,-1,-1,-1,-1,-1,-1,-1,-1,-1,-1,-1,-1,-1,-1,-1,-1,-1,-1,-1,-1,-1,-1,-1,-1,-1,-1,-1,-1,-1,-1,-1,-1,-1,-1,-1,-1,-1,-1,-1,-1,-1,-1,-1,-1,-1,-1,-1,-1,-1,-1,-1,-1,-1],"loss_changes":[8.012291E8,1.9908403E8,1.0224988E9,2.9165916E7,5.569843E7,1.8954655E9,4.6316182E8,2.2111572E7,2.4739906E7,3.3390912E7,5.8487296E7,3.2440634E8,2.2438057E9,5.7893235E8,5.1819488E8,4.686446E6,1.7830936E7,6.605031E4,1.7744552E7,8.277035E7,4.5914176E7,2.1254952E7,3.2280192E7,3.8964618E8,3.7405104E8,8.469857E8,4.675346E8,3.0853964E7,3.6121747E8,5.1649914E8,2.825458E8,7.183641E6,3.9454115E6,1.1319139E7,7.41376E5,8.0605625E4,3.7375276E3,1.3769548E6,2.263208E6,1.8074432E7,2.9327366E7,8.714848E7,1.6924736E7,9.421716E6,3.113108E6,3.906131E7,2.1817842E7,1.3754925E8,1.378943E8,1.0436032E7,2.907488E7,1.0650505E9,4.6053414E8,1.8704794E8,9.784E6,3.107744E6,1.0634528E7,4.4967E8,4.520011E7,3.6332394E8,3.5935104E8,2.6284038E7,2.8359155E8,0E0,0E0,0E0,0E0,0E0,0E0,0E0,0E0,0E0,0E0,0E0,0E0,0E0,0E0,0E0,0E0,0E0,0E0,0E0,0E0,0E0,0E0,0E0,0E0,0E0,0E0,0E0,0E0,0E0,0E0,0E0,0E0,0E0,0E0,0E0,0E0,0E0,0E0,0E0,0E0,0E0,0E0,0E0,0E0,0E0,0E0,0E0,0E0,0E0,0E0,0E0,0E0,0E0,0E0,0E0,0E0,0E0,0E0,0E0,0E0,0E0,0E0,0E0,0E0],"parents":[2147483647,0,0,1,1,2,2,3,3,4,4,5,5,6,6,7,7,8,8,9,9,10,10,11,11,12,12,13,13,14,14,15,15,16,16,17,17,18,18,19,19,20,20,21,21,22,22,23,23,24,24,25,25,26,26,27,27,28,28,29,29,30,30,31,31,32,32,33,33,34,34,35,35,36,36,37,37,38,38,39,39,40,40,41,41,42,42,43,43,44,44,45,45,46,46,47,47,48,48,49,49,50,50,51,51,52,52,53,53,54,54,55,55,56,56,57,57,58,58,59,59,60,60,61,61,62,62],"right_children":[2,4,6,8,10,12,14,16,18,20,22,24,26,28,30,32,34,36,38,40,42,44,46,48,50,52,54,56,58,60,62,64,66,68,70,72,74,76,78,80,82,84,86,88,90,92,94,96,98,100,102,104,106,108,110,112,114,116,118,120,122,124,126,-1,-1,-1,-1,-1,-1,-1,-1,-1,-1,-1,-1,-1,-1,-1,-1,-1,-1,-1,-1,-1,-1,-1,-1,-1,-1,-1,-1,-1,-1,-1,-1,-1,-1,-1,-1,-1,-1,-1,-1,-1,-1,-1,-1,-1,-1,-1,-1,-1,-1,-1,-1,-1,-1,-1,-1,-1,-1,-1,-1,-1,-1,-1,-1],"split_conditions":[1.9E1,4.89E2,6.6E1,1E0,1.186E3,4.9E1,3E0,3.73E2,2.07E2,1E1,1E0,4.5E1,8.62E2,5.12E2,2.8E1,5E0,1.4E1,7E0,1E1,8.54E2,1.4E1,1.326E3,1.2E1,7.06E2,5.01E2,5.3E1,1.664E3,2.39E2,7E0,1.8E1,5.62E2,1E0,2.59E2,1E1,4.37E2,2.014E3,3E0,1.8E1,4.17E2,1E0,6E0,6.76E2,8.76E2,1E1,2.014E3,1E0,6E0,2.7E1,2.015E3,4E0,5.91E2,4.21E2,7.03E2,1.043E3,1.821E3,1.1E1,7.9E1,4E0,9.18E2,3E0,1.1E1,4.24E2,8E0,-2.8573761E1,1.324658E2,-2.1857424E1,-9.452202E1,-1.1980515E2,1.4296037E2,-3.4488315E2,-2.4616878E2,-2.8395226E1,-6.923911E1,-2.9662727E1,-4.27181E0,-4.205274E2,-6.2224567E1,2.9298608E2,4.596428E2,-1.4317427E2,-2.3436949E2,-1.01223526E2,1.4325883E2,-1.1478498E2,-4.1258072E2,-2.0007047E2,-8.0627525E1,-1.8029599E2,-5.690364E2,-5.165905E1,1.3165746E2,-6.2566754E2,-2.2686415E2,-5.2629645E2,2.5335938E2,5.4337273E1,-8.873766E1,9.93416E1,3.1530823E2,-4.5547318E1,5.6071007E1,-2.6781583E2,-4.9654318E2,1.1466757E2,8.951351E2,5.890274E1,4.2980472E2,9.649284E2,1.5644578E3,2.7975818E3,5.8428423E3,-4.701589E1,-2.1762827E1,-3.0142978E2,1.350968E1,5.508233E1,2.706846E2,6.766879E1,-4.4077806E0,2.477848E1,-1.4711618E1,-4.345999E1,2.8845285E1,-1.8462503E1,1.7892942E1,1.00366234E2,-9.17729E-1],"split_indices":[1,3,1,5,3,1,9,3,3,1,5,1,3,3,9,2,1,8,1,3,1,3,8,3,3,1,3,3,8,9,3,4,3,1,3,7,2,9,3,5,1,3,3,1,7,6,1,1,7,2,3,3,3,3,3,8,1,8,3,2,8,3,8,0,0,0,0,0,0,0,0,0,0,0,0,0,0,0,0,0,0,0,0,0,0,0,0,0,0,0,0,0,0,0,0,0,0,0,0,0,0,0,0,0,0,0,0,0,0,0,0,0,0,0,0,0,0,0,0,0,0,0,0,0,0,0,0],"split_type":[0,0,0,0,0,0,0,0,0,0,0,0,0,0,0,0,0,0,0,0,0,0,0,0,0,0,0,0,0,0,0,0,0,0,0,0,0,0,0,0,0,0,0,0,0,0,0,0,0,0,0,0,0,0,0,0,0,0,0,0,0,0,0,0,0,0,0,0,0,0,0,0,0,0,0,0,0,0,0,0,0,0,0,0,0,0,0,0,0,0,0,0,0,0,0,0,0,0,0,0,0,0,0,0,0,0,0,0,0,0,0,0,0,0,0,0,0,0,0,0,0,0,0,0,0,0,0],"sum_hessian":[5.12672E5,8.474E3,5.04198E5,2.433E3,6.041E3,2.1713E4,4.82485E5,2.241E3,1.92E2,5.519E3,5.22E2,1.3824E4,7.889E3,3.167E4,4.50815E5,1.75E3,4.91E2,8.1E1,1.11E2,2.687E3,2.832E3,1.64E2,3.58E2,1.1985E4,1.839E3,7.25E3,6.39E2,1.2621E4,1.9049E4,3.97096E5,5.3719E4,2.85E2,1.465E3,3.72E2,1.19E2,7.3E1,8E0,1.1E1,1E2,2.189E3,4.98E2,1.07E3,1.762E3,7.2E1,9.2E1,3.21E2,3.7E1,7.591E3,4.394E3,1.009E3,8.3E2,1.754E3,5.496E3,6.31E2,8E0,8.874E3,3.747E3,9.861E3,9.188E3,2.37792E5,1.59304E5,2.1293E4,3.2426E4,1.69E2,1.16E2,1.246E3,2.19E2,3.26E2,4.6E1,7.3E1,4.6E1,1.8E1,5.5E1,1E0,7E0,6E0,5E0,5.4E1,4.6E1,1.114E3,1.075E3,2.15E2,2.83E2,3.84E2,6.86E2,1.382E3,3.8E2,4.9E1,2.3E1,4.1E1,5.1E1,2.36E2,8.5E1,1.3E1,2.4E1,2.508E3,5.083E3,3.454E3,9.4E2,4.95E2,5.14E2,1.82E2,6.48E2,8.27E2,9.27E2,4.467E3,1.029E3,4.4E2,1.91E2,4E0,4E0,7.413E3,1.461E3,2.6E1,3.721E3,4.252E3,5.609E3,5.653E3,3.535E3,1.01978E5,1.35814E5,1.39711E5,1.9593E4,1.3385E4,7.908E3,2.2439E4,9.987E3],"tree_param":{"num_deleted":"0","num_feature":"14","num_nodes":"127","size_leaf_vector":"1"}},{"base_weights":[3.7044764E-2,1.3635721E1,-5.998139E1,9.804364E0,4.1717905E2,-2.4128448E2,2.352538E1,4.8769503E0,2.8866492E2,1.5582964E2,6.6109705E2,-1.951065E2,-2.4012886E3,-5.4501114E0,4.9514868E2,-1.23226595E1,5.910401E1,6.877845E1,2.569878E3,-2.5584864E1,2.6128583E2,9.84042E2,2.904438E2,-1.2207921E2,-7.5193054E2,-3.8598413E3,4.179868E2,-8.227362E1,6.9211205E1,9.771718E2,-9.463245E2,-5.3191586E0,-6.2999835E2,1.6091087E1,6.039821E2,2.3455261E3,-1.4169185E2,1.8315387E3,3.1985942E3,-4.5091297E1,-1.2674028E1,4.0506616E2,-5.6494442E1,1.9984365E3,-3.2499695E2,-1.0045529E3,1.0708887E3,-5.218974E1,-6.393398E2,-1.235497E3,1.1140423E2,-1.0732592E3,-4.6915513E3,2.8391956E2,1.4675223E3,-3.789635E1,-8.365053E2,5.6792664E2,3.6095024E1,6.8085944E2,2.5398906E3,-2.631505E3,1.0624166E3,7.3803368E0,-4.626308E1,-9.5437256E1,-1.6406558E3,6.611971E1,-2.1014223E1,4.2027063E2,-1.4074E2,9.314852E2,2.2351882E3,1.7717701E1,-1.153546E3,1.1385856E3,6.5725415E2,1.8149525E3,1.0070196E3,-2.0459103E1,-4.044483E1,-4.599786E0,-4.2942455E1,9.365553E1,2.4432233E2,-5.146271E1,3.8640088E2,4.9464478E2,1.2892435E3,4.005082E1,-6.377729E2,6.0155594E1,-5.856592E2,4.7185748E2,1.262742E3,3.515151E0,-1.2491214E2,-2.2602598E1,-4.2580215E2,9.9331085E1,-1.0298813E3,1.4769678E2,-2.3007155E2,1.6239352E2,-8.886785E2,-1.7822544E3,-3.0922837E3,2.3220675E1,4.3514703E2,1.8386353E3,5.497437E2,5.1818523E1,-7.105952E1,-1.4725591E1,-5.1038348E2,3.3571556E1,4.218128E2,1.1239236E-1,2.0508919E2,2.798536E2,1.1794962E3,4.7911685E2,1.4151276E3,-1.4601659E3,-3.1774426E2,2.146459E2,8.680459E2],"categories":[],"categories_nodes":[],"categories_segments":[],"categories_sizes":[],"default_left":[0,0,0,0,0,0,0,0,0,0,0,0,0,0,0,0,0,0,0,0,0,0,0,0,0,0,0,0,0,0,0,0,0,0,0,0,0,0,0,0,0,0,0,0,0,0,0,0,0,0,0,0,0,0,0,0,0,0,0,0,0,0,0,0,0,0,0,0,0,0,0,0,0,0,0,0,0,0,0,0,0,0,0,0,0,0,0,0,0,0,0,0,0,0,0,0,0,0,0,0,0,0,0,0,0,0,0,0,0,0,0,0,0,0,0,0,0,0,0,0,0,0,0,0,0,0,0],"id":8,"left_children":[1,3,5,7,9,11,13,15,17,19,21,23,25,27,29,31,33,35,37,39,41,43,45,47,49,51,53,55,57,59,61,63,65,67,69,71,73,75,77,79,81,83,85,87,89,91,93,95,97,99,101,103,105,107,109,111,113,115,117,119,121,123,125,-1,-1,-1,-1,-1,-1,-1,-1,-1,-1,-1,-1,-1,-1,-1,-1,-1,-1,-1,-1,-1,-1,-1,-1,-1,-1,-1,-1,-1,-1,-1,-1,-1,-1,-1,-1,-1,-1,-1,-1,-1,-1,-1,-1,-1,-1,-1,-1,-1,-1,-1,-1,-1,-1,-1,-1,-1,-1,-1,-1,-1,-1,-1,-1],"loss_changes":[4.1842976E8,6.4623E8,1.4337972E9,5.6891776E8,2.5048966E8,2.9783048E9,8.860611E8,3.7946707E8,3.6058824E9,3.6337E7,2.430654E8,1.1889046E9,2.571652E9,3.5038512E8,2.6085972E9,1.3361956E9,2.2961175E9,3.142846E9,2.8751974E8,1.7546775E5,5.489723E7,1.4427292E9,9.5919443E8,9.345079E8,1.4153939E9,9.498271E8,2.9694924E7,1.0077053E9,5.1163123E8,1.3008387E9,3.1881667E9,5.348264E8,4.0311887E9,6.129768E8,1.5016753E9,5.607457E8,2.302924E9,6.451539E7,1.6639898E8,3.82205E4,1.0655322E5,1.4959584E7,1.4518929E7,3.5568717E8,1.8300853E8,6.711002E7,1.0712851E8,2.6655869E8,3.8801344E8,2.569174E9,1.282191E8,9.507596E7,5.113687E8,2.6556556E7,1.5475236E7,4.1947386E8,2.4876045E8,2.6627174E8,3.89833E8,4.7971008E8,2.0303488E8,2.9331354E8,1.8265853E8,0E0,0E0,0E0,0E0,0E0,0E0,0E0,0E0,0E0,0E0,0E0,0E0,0E0,0E0,0E0,0E0,0E0,0E0,0E0,0E0,0E0,0E0,0E0,0E0,0E0,0E0,0E0,0E0,0E0,0E0,0E0,0E0,0E0,0E0,0E0,0E0,0E0,0E0,0E0,0E0,0E0,0E0,0E0,0E0,0E0,0E0,0E0,0E0,0E0,0E0,0E0,0E0,0E0,0E0,0E0,0E0,0E0,0E0,0E0,0E0,0E0,0E0,0E0,0E0],"parents":[2147483647,0,0,1,1,2,2,3,3,4,4,5,5,6,6,7,7,8,8,9,9,10,10,11,11,12,12,13,13,14,14,15,15,16,16,17,17,18,18,19,19,20,20,21,21,22,22,23,23,24,24,25,25,26,26,27,27,28,28,29,29,30,30,31,31,32,32,33,33,34,34,35,35,36,36,37,37,38,38,39,39,40,40,41,41,42,42,43,43,44,44,45,45,46,46,47,47,48,48,49,49,50,50,51,51,52,52,53,53,54,54,55,55,56,56,57,57,58,58,59,59,60,60,61,61,62,62],"right_children":[2,4,6,8,10,12,14,16,18,20,22,24,26,28,30,32,34,36,38,40,42,44,46,48,50,52,54,56,58,60,62,64,66,68,70,72,74,76,78,80,82,84,86,88,90,92,94,96,98,100,102,104,106,108,110,112,114,116,118,120,122,124,126,-1,-1,-1,-1,-1,-1,-1,-1,-1,-1,-1,-1,-1,-1,-1,-1,-1,-1,-1,-1,-1,-1,-1,-1,-1,-1,-1,-1,-1,-1,-1,-1,-1,-1,-1,-1,-1,-1,-1,-1,-1,-1,-1,-1,-1,-1,-1,-1,-1,-1,-1,-1,-1,-1,-1,-1,-1,-1,-1,-1,-1,-1,-1,-1],"split_conditions":[9.1E2,9.01E2,9.75E2,1.925E3,6.65E2,1.607E3,1.247E3,6.84E2,7.71E2,1E0,9.86E2,1.068E3,9.49E2,1.045E3,1.097E3,6.76E2,1.115E3,2.54E2,1E0,1.2E1,5.82E2,9.06E2,9.06E2,9.67E2,9.49E2,9.45E2,3E1,1.041E3,1.049E3,1.664E3,1.101E3,5.49E2,1.402E3,7.58E2,8.45E2,2.608E3,7.58E2,7E0,8.19E2,1E0,1E0,3.9E2,1.2E1,7.38E2,1E0,1.059E3,1.552E3,9.54E2,2.87E2,9.23E2,4E0,9.23E2,1E0,9E0,3.0774E4,1.002E3,2.87E2,4.96E2,1.027E3,1.084E3,1.006E3,6E0,1E0,7.3803368E0,-4.626308E1,-9.5437256E1,-1.6406558E3,6.611971E1,-2.1014223E1,4.2027063E2,-1.4074E2,9.314852E2,2.2351882E3,1.7717701E1,-1.153546E3,1.1385856E3,6.5725415E2,1.8149525E3,1.0070196E3,-2.0459103E1,-4.044483E1,-4.599786E0,-4.2942455E1,9.365553E1,2.4432233E2,-5.146271E1,3.8640088E2,4.9464478E2,1.2892435E3,4.005082E1,-6.377729E2,6.0155594E1,-5.856592E2,4.7185748E2,1.262742E3,3.515151E0,-1.2491214E2,-2.2602598E1,-4.2580215E2,9.9331085E1,-1.0298813E3,1.4769678E2,-2.3007155E2,1.6239352E2,-8.886785E2,-1.7822544E3,-3.0922837E3,2.3220675E1,4.3514703E2,1.8386353E3,5.497437E2,5.1818523E1,-7.105952E1,-1.4725591E1,-5.1038348E2,3.3571556E1,4.218128E2,1.1239236E-1,2.0508919E2,2.798536E2,1.1794962E3,4.7911685E2,1.4151276E3,-1.4601659E3,-3.1774426E2,2.146459E2,8.680459E2],"split_indices":[1,1,1,3,3,3,3,1,1,4,3,3,1,1,1,1,3,1,5,9,3,1,1,1,1,1,9,1,1,3,1,1,3,1,1,3,1,8,1,5,5,3,8,3,5,3,3,1,3,1,2,1,5,8,0,1,3,3,3,1,1,2,5,0,0,0,0,0,0,0,0,0,0,0,0,0,0,0,0,0,0,0,0,0,0,0,0,0,0,0,0,0,0,0,0,0,0,0,0,0,0,0,0,0,0,0,0,0,0,0,0,0,0,0,0,0,0,0,0,0,0,0,0,0,0,0,0],"split_type":[0,0,0,0,0,0,0,0,0,0,0,0,0,0,0,0,0,0,0,0,0,0,0,0,0,0,0,0,0,0,0,0,0,0,0,0,0,0,0,0,0,0,0,0,0,0,0,0,0,0,0,0,0,0,0,0,0,0,0,0,0,0,0,0,0,0,0,0,0,0,0,0,0,0,0,0,0,0,0,0,0,0,0,0,0,0,0,0,0,0,0,0,0,0,0,0,0,0,0,0,0,0,0,0,0,0,0,0,0,0,0,0,0,0,0,0,0,0,0,0,0,0,0,0,0,0,0],"sum_hessian":[5.12672E5,4.17971E5,9.4701E4,4.14041E5,3.93E3,2.9863E4,6.4838E4,4.06853E5,7.188E3,1.898E3,2.032E3,2.9239E4,6.24E2,6.1086E4,3.752E3,3.08883E5,9.797E4,6.557E3,6.31E2,6.98E2,1.2E3,1.085E3,9.47E2,2.585E4,3.389E3,4.11E2,2.13E2,3.0107E4,3.0979E4,2.812E3,9.4E2,3.05421E5,3.462E3,9.0803E4,7.167E3,5.54E2,6.003E3,2.92E2,3.39E2,2.77E2,4.21E2,8.26E2,3.74E2,6.11E2,4.74E2,3.56E2,5.91E2,2.2774E4,3.076E3,2.172E3,1.217E3,9.5E1,3.16E2,1.9E2,2.3E1,2.8435E4,1.672E3,1.928E3,2.9051E4,2.365E3,4.47E2,5.11E2,4.29E2,2.48259E5,5.7162E4,2.971E3,4.91E2,3.0283E4,6.052E4,5.656E3,1.511E3,4.53E2,1.01E2,5.55E3,4.53E2,1.55E2,1.37E2,2.47E2,9.2E1,2.5E2,2.7E1,4.03E2,1.8E1,2.3E2,5.96E2,3.55E2,1.9E1,2.24E2,3.87E2,3.33E2,1.41E2,4.6E1,3.1E2,5.45E2,4.6E1,1.7524E4,5.25E3,8.1E2,2.266E3,7.93E2,1.379E3,9.21E2,2.96E2,3.2E1,6.3E1,1.82E2,1.34E2,1.36E2,5.4E1,2E0,2.1E1,1.2059E4,1.6376E4,3.11E2,1.361E3,6.85E2,1.243E3,2.651E4,2.541E3,2.207E3,1.58E2,7E1,3.77E2,4.46E2,6.5E1,2.22E2,2.07E2],"tree_param":{"num_deleted":"0","num_feature":"14","num_nodes":"127","size_leaf_vector":"1"}},{"base_weights":[3.1435642E-2,-2.8252592E1,1.8904379E1,-4.3704796E1,4.8539444E1,-3.0692863E1,4.326445E1,-3.1616941E1,-1.1359482E2,3.055098E1,3.7846936E2,-6.3484627E1,1.1974004E1,8.8833855E1,-1.5780082E0,-4.3828926E1,1.886634E1,-2.4622816E2,-1.6085577E1,5.1006973E1,-1.12909966E2,3.5075916E2,2.3063716E3,4.3890823E1,-1.00050766E2,2.8259098E1,-6.845119E1,8.865729E0,1.3928769E2,-2.402769E1,5.6960617E1,-2.7551233E1,-8.749202E1,4.325683E1,-1.405646E2,-2.0532579E2,-9.999778E2,8.916841E2,-1.169708E2,3.4912533E1,3.2715137E2,-7.5949554E1,-6.366921E2,5.4197125E2,8.8272865E1,9.714906E2,3.916994E3,1.6819504E2,-8.2417435E1,-1.1360154E2,1.4946805E2,1.6807224E1,2.3988733E2,-4.5744366E1,-2.2398296E2,-2.7910769E1,5.1719505E1,1.0521797E2,3.3914334E2,-5.363718E1,7.4509384E1,-2.2731457E1,1.02954506E2,-2.1433943E1,5.3091038E1,-1.07672415E1,-6.922809E1,6.998203E0,7.56105E1,-9.326632E1,7.856923E1,-7.625175E1,-2.9843283E2,-5.369225E2,3.6801068E2,1.6529924E2,1.5316846E3,-1.7627704E2,2.1502974E1,5.049521E1,-5.485828E0,9.025782E0,2.7909128E2,1.6465308E2,-8.296928E1,-1.0469849E2,-5.770361E2,1.11818085E2,5.396273E2,-3.291996E2,2.047731E2,1.0307253E3,7.900228E0,2.3088604E3,2.5457454E2,1.546404E2,2.4071245E1,-2.07353E1,-8.0937386E1,-5.404472E1,-3.623978E2,-2.7399622E1,1.7642952E2,-8.035139E0,2.8837366E1,-1.0581424E2,1.8460664E2,-5.1947872E1,1.35842E1,-1.7534677E2,-1.0559017E1,-8.442428E0,-4.8753025E1,-4.909529E-1,4.525608E1,5.2082703E1,5.681212E3,6.486267E1,2.6420444E2,8.173176E1,-3.057604E1,1.5778345E2,1.9423569E1,6.34637E1,-2.0829105E1,2.1870184E1,1.309545E2],"categories":[],"categories_nodes":[],"categories_segments":[],"categories_sizes":[],"default_left":[0,0,0,0,0,0,0,0,0,0,0,0,0,0,0,0,0,0,0,0,0,0,0,0,0,0,0,0,0,0,0,0,0,0,0,0,0,0,0,0,0,0,0,0,0,0,0,0,0,0,0,0,0,0,0,0,0,0,0,0,0,0,0,0,0,0,0,0,0,0,0,0,0,0,0,0,0,0,0,0,0,0,0,0,0,0,0,0,0,0,0,0,0,0,0,0,0,0,0,0,0,0,0,0,0,0,0,0,0,0,0,0,0,0,0,0,0,0,0,0,0,0,0,0,0,0,0],"id":9,"left_children":[1,3,5,7,9,11,13,15,17,19,21,23,25,27,29,31,33,35,37,39,41,43,45,47,49,51,53,55,57,59,61,63,65,67,69,71,73,75,77,79,81,83,85,87,89,91,93,95,97,99,101,103,105,107,109,111,113,115,117,119,121,123,125,-1,-1,-1,-1,-1,-1,-1,-1,-1,-1,-1,-1,-1,-1,-1,-1,-1,-1,-1,-1,-1,-1,-1,-1,-1,-1,-1,-1,-1,-1,-1,-1,-1,-1,-1,-1,-1,-1,-1,-1,-1,-1,-1,-1,-1,-1,-1,-1,-1,-1,-1,-1,-1,-1,-1,-1,-1,-1,-1,-1,-1,-1,-1,-1],"loss_changes":[2.736668E8,2.4346998E8,3.715132E8,1.4430016E8,2.0397805E8,1.4170803E8,4.2138285E8,8.977878E7,3.2572605E8,9.566022E7,9.412299E7,2.2486E8,5.7649776E7,4.126556E8,1.365913E8,8.333832E7,1.1031006E8,3.2878317E8,1.3294876E9,1.267781E8,7.870488E7,8.793619E7,4.99444E7,2.2844262E8,1.4446403E8,8.870721E7,2.6166216E7,6.23595E7,4.26965E8,2.1919405E8,1.056047E8,1.7497019E8,1.070363E8,7.7720664E7,5.1539E7,2.0927322E8,7.119046E7,1.7682511E9,4.9240688E8,8.173587E7,1.1217768E8,1.3867162E8,5.900616E7,1.7318928E8,1.7778514E8,1.5592389E7,2.3916528E7,1.241893E8,2.3473992E7,1.364354E8,9.146237E7,4.6659536E7,1.09798056E8,2.7431236E7,2.425824E7,1.6338335E7,3.7359964E7,6.336717E8,3.6192346E8,9.425792E7,1.4921702E8,2.9871762E7,1.7193344E8,0E0,0E0,0E0,0E0,0E0,0E0,0E0,0E0,0E0,0E0,0E0,0E0,0E0,0E0,0E0,0E0,0E0,0E0,0E0,0E0,0E0,0E0,0E0,0E0,0E0,0E0,0E0,0E0,0E0,0E0,0E0,0E0,0E0,0E0,0E0,0E0,0E0,0E0,0E0,0E0,0E0,0E0,0E0,0E0,0E0,0E0,0E0,0E0,0E0,0E0,0E0,0E0,0E0,0E0,0E0,0E0,0E0,0E0,0E0,0E0,0E0,0E0,0E0,0E0],"parents":[2147483647,0,0,1,1,2,2,3,3,4,4,5,5,6,6,7,7,8,8,9,9,10,10,11,11,12,12,13,13,14,14,15,15,16,16,17,17,18,18,19,19,20,20,21,21,22,22,23,23,24,24,25,25,26,26,27,27,28,28,29,29,30,30,31,31,32,32,33,33,34,34,35,35,36,36,37,37,38,38,39,39,40,40,41,41,42,42,43,43,44,44,45,45,46,46,47,47,48,48,49,49,50,50,51,51,52,52,53,53,54,54,55,55,56,56,57,57,58,58,59,59,60,60,61,61,62,62],"right_children":[2,4,6,8,10,12,14,16,18,20,22,24,26,28,30,32,34,36,38,40,42,44,46,48,50,52,54,56,58,60,62,64,66,68,70,72,74,76,78,80,82,84,86,88,90,92,94,96,98,100,102,104,106,108,110,112,114,116,118,120,122,124,126,-1,-1,-1,-1,-1,-1,-1,-1,-1,-1,-1,-1,-1,-1,-1,-1,-1,-1,-1,-1,-1,-1,-1,-1,-1,-1,-1,-1,-1,-1,-1,-1,-1,-1,-1,-1,-1,-1,-1,-1,-1,-1,-1,-1,-1,-1,-1,-1,-1,-1,-1,-1,-1,-1,-1,-1,-1,-1,-1,-1,-1,-1,-1,-1],"split_conditions":[2.014E3,1.1E1,4E0,9.8E2,1.507E3,4E0,7E0,1E0,5.05E2,1E0,1.101E3,9E0,1E0,5.24E2,1.1E1,8E0,1E1,4.92E2,5.49E2,2.9E1,1.214E3,6.1E2,1.2E1,2.015E3,3E1,1.115E3,1.068E3,2.75E2,1E0,2.015E3,5.53E2,7E0,1.5E1,7.64E2,3E1,1.821E3,6E0,1.925E3,7.84E2,3E0,5.07E2,1E0,2.4E1,4.57E2,7.46E2,2.66624E5,2.4E1,2E0,8.3E2,2.283E3,2.015E3,4.37E2,3.54E2,7.03E2,6.97E2,1E0,4.74E2,1E0,1E0,2E0,1E0,2E0,2.2E1,-2.1433943E1,5.3091038E1,-1.07672415E1,-6.922809E1,6.998203E0,7.56105E1,-9.326632E1,7.856923E1,-7.625175E1,-2.9843283E2,-5.369225E2,3.6801068E2,1.6529924E2,1.5316846E3,-1.7627704E2,2.1502974E1,5.049521E1,-5.485828E0,9.025782E0,2.7909128E2,1.6465308E2,-8.296928E1,-1.0469849E2,-5.770361E2,1.11818085E2,5.396273E2,-3.291996E2,2.047731E2,1.0307253E3,7.900228E0,2.3088604E3,2.5457454E2,1.546404E2,2.4071245E1,-2.07353E1,-8.0937386E1,-5.404472E1,-3.623978E2,-2.7399622E1,1.7642952E2,-8.035139E0,2.8837366E1,-1.0581424E2,1.8460664E2,-5.1947872E1,1.35842E1,-1.7534677E2,-1.0559017E1,-8.442428E0,-4.8753025E1,-4.909529E-1,4.525608E1,5.2082703E1,5.681212E3,6.486267E1,2.6420444E2,8.173176E1,-3.057604E1,1.5778345E2,1.9423569E1,6.34637E1,-2.0829105E1,2.1870184E1,1.309545E2],"split_indices":[7,8,8,3,3,2,8,6,1,6,1,9,5,3,8,8,8,1,1,9,3,1,8,7,9,3,3,3,6,7,3,8,9,3,9,3,2,3,1,2,3,2,9,1,1,0,9,2,3,3,7,3,1,3,1,5,1,12,5,9,2,2,9,0,0,0,0,0,0,0,0,0,0,0,0,0,0,0,0,0,0,0,0,0,0,0,0,0,0,0,0,0,0,0,0,0,0,0,0,0,0,0,0,0,0,0,0,0,0,0,0,0,0,0,0,0,0,0,0,0,0,0,0,0,0,0,0],"split_type":[0,0,0,0,0,0,0,0,0,0,0,0,0,0,0,0,0,0,0,0,0,0,0,0,0,0,0,0,0,0,0,0,0,0,0,0,0,0,0,0,0,0,0,0,0,0,0,0,0,0,0,0,0,0,0,0,0,0,0,0,0,0,0,0,0,0,0,0,0,0,0,0,0,0,0,0,0,0,0,0,0,0,0,0,0,0,0,0,0,0,0,0,0,0,0,0,0,0,0,0,0,0,0,0,0,0,0,0,0,0,0,0,0,0,0,0,0,0,0,0,0,0,0,0,0,0,0],"sum_hessian":[5.12672E5,2.05179E5,3.07493E5,1.70809E5,3.437E4,1.01282E5,2.06211E5,1.45624E5,2.5185E4,3.2594E4,1.776E3,5.7268E4,4.4014E4,1.02276E5,1.03935E5,1.17259E5,2.8365E4,1.067E4,1.4515E4,2.8527E4,4.067E3,1.752E3,2.4E1,1.4548E4,4.272E4,3.6603E4,7.411E3,3.9566E4,6.271E4,7.5125E4,2.881E4,8.5417E4,3.1842E4,2.4602E4,3.763E3,1.0122E4,5.48E2,1.451E3,1.3064E4,2.6957E4,1.57E3,3.8E3,2.67E2,1.013E3,7.39E2,1.4E1,1E1,7.332E3,7.216E3,4.052E4,2.2E3,3.4725E4,1.878E3,6.468E3,9.43E2,2.1293E4,1.8273E4,5.3578E4,9.132E3,5.7767E4,1.7358E4,1.0543E4,1.8267E4,7.664E4,8.777E3,1.388E4,1.7962E4,1.9357E4,5.245E3,3.26E3,5.03E2,8.92E3,1.202E3,5.26E2,2.2E1,1.154E3,2.97E2,5.283E3,7.781E3,1.1047E4,1.591E4,6.72E2,8.98E2,6.9E2,3.11E3,1.47E2,1.2E2,6.37E2,3.76E2,2.22E2,5.17E2,6E0,8E0,8E0,2E0,3.37E3,3.962E3,4.763E3,2.453E3,4.0159E4,3.61E2,1.098E3,1.102E3,1.9244E4,1.5481E4,4.18E2,1.46E3,3.598E3,2.87E3,5.8E2,3.63E2,1.8382E4,2.911E3,7.748E3,1.0525E4,5.3574E4,4E0,4.336E3,4.796E3,1.932E3,5.5835E4,2.236E3,1.5122E4,1.183E3,9.36E3,1.331E4,4.957E3],"tree_param":{"num_deleted":"0","num_feature":"14","num_nodes":"127","size_leaf_vector":"1"}},{"base_weights":[3.7300922E-2,-1.5478796E2,3.1767273E0,-3.1980927E1,-1.8964839E2,7.930586E1,-7.9808264E0,9.998722E0,-1.0120237E2,-1.7022884E2,-3.4437283E2,2.8779533E1,8.151444E2,-6.5316504E2,-5.5010242E0,-4.606625E1,1.1974699E2,-5.1906097E1,-3.7174747E2,-2.2581732E2,-1.3388121E2,-1.3175275E2,-5.8874646E2,1.0817281E2,-4.1702854E1,-2.244016E1,1.00512646E3,-2.9884207E2,-9.850488E2,-6.1713535E1,9.4752865E0,-1.5172787E1,-1.8212482E2,-1.3619273E0,4.7017984E2,-1.5528344E1,-9.927541E1,-5.5243317E2,-2.4189136E2,-1.8855437E2,-2.7128644E2,-2.4239816E2,-1.02980705E2,-4.991971E2,1.0886923E3,-7.103281E2,-1.4721259E2,6.2160145E1,6.348294E2,-3.4804883E2,-1.0034686E0,-2.5238054E1,3.3523325E2,7.8675507E2,1.2611019E3,-1.2025172E1,-5.156323E2,-1.0374061E3,-1.09828835E2,-4.822969E1,-7.2790894E2,3.7695453E2,-4.1867204E0,-1.5195757E1,-2.3560612E0,-3.148886E1,-1.5917838E2,-8.30602E0,6.4871704E1,1.3881015E2,4.9054718E2,-1.8263346E1,-1.2852933E0,-4.684075E1,-7.356997E1,-2.866754E2,-7.381244E1,-2.1971715E2,-5.1123714E1,2.555112E0,-1.2172594E2,-2.008365E2,-1.0528456E2,-1.302761E2,1.7318024E1,-8.937438E1,-3.2163662E1,-1.3317966E2,-3.5730515E2,1.99718E2,8.179045E2,-4.170095E2,-1.384994E2,1.022836E2,-1.6325597E2,6.0973618E1,-6.862011E1,1.3430615E2,6.679457E2,-3.248442E2,6.941177E2,-1.8924454E1,1.0902866E2,-9.022297E0,-9.971881E1,3.831482E2,-3.593622E1,6.150059E2,3.6420703E2,9.5824756E2,5.5514844E2,-3.9571643E0,-5.1790226E1,-2.1461832E2,-3.5298187E2,-4.4501816E2,-5.8430853E2,3.0363028E2,-8.357988E2,-2.6550028E1,5.596838E2,-9.158819E0,-4.366909E2,1.3542973E2,7.686403E2,-7.482603E1,1.5086583E0],"categories":[],"categories_nodes":[],"categories_segments":[],"categories_sizes":[],"default_left":[0,0,0,0,0,0,0,0,0,0,0,0,0,0,0,0,0,0,0,0,0,0,0,0,0,0,0,0,0,0,0,0,0,0,0,0,0,0,0,0,0,0,0,0,0,0,0,0,0,0,0,0,0,0,0,0,0,0,0,0,0,0,0,0,0,0,0,0,0,0,0,0,0,0,0,0,0,0,0,0,0,0,0,0,0,0,0,0,0,0,0,0,0,0,0,0,0,0,0,0,0,0,0,0,0,0,0,0,0,0,0,0,0,0,0,0,0,0,0,0,0,0,0,0,0,0,0],"id":10,"left_children":[1,3,5,7,9,11,13,15,17,19,21,23,25,27,29,31,33,35,37,39,41,43,45,47,49,51,53,55,57,59,61,63,65,67,69,71,73,75,77,79,81,83,85,87,89,91,93,95,97,99,101,103,105,107,109,111,113,115,117,119,121,123,125,-1,-1,-1,-1,-1,-1,-1,-1,-1,-1,-1,-1,-1,-1,-1,-1,-1,-1,-1,-1,-1,-1,-1,-1,-1,-1,-1,-1,-1,-1,-1,-1,-1,-1,-1,-1,-1,-1,-1,-1,-1,-1,-1,-1,-1,-1,-1,-1,-1,-1,-1,-1,-1,-1,-1,-1,-1,-1,-1,-1,-1,-1,-1,-1],"loss_changes":[2.4919163E8,4.361408E7,4.268189E8,6.5508915E6,2.3786528E7,2.3880353E9,7.011733E8,8.644376E6,1.1330377E7,1.4220432E7,4.585397E7,3.3634173E8,6.5673574E8,1.9702842E8,3.6753645E8,3.9063245E6,2.0159896E7,1.2408779E6,2.940044E6,4.670896E6,1.4283264E7,2.1310672E8,2.1958896E7,6.84927E8,3.9698368E8,7.730196E5,1.8704794E8,5.0545424E7,3.9569856E7,8.249971E8,1.7307401E9,1.2068811E5,2.771792E6,7.099326E5,1.1730168E7,1.1119151E5,7.002125E4,3.72612E5,2.1067515E6,1.6320904E7,9.835072E6,4.761704E6,9.720548E6,1.8116712E7,4.0827976E7,1.7027808E7,5.7434435E6,3.0992986E8,5.8269965E8,1.9565176E9,2.2687085E8,9.475021E5,1.1080052E6,4.611763E7,1.5077222E8,1.312859E5,7.310456E6,1.4757824E7,5.701149E7,5.119923E8,1.8806227E8,1.5207907E9,3.4831187E8,0E0,0E0,0E0,0E0,0E0,0E0,0E0,0E0,0E0,0E0,0E0,0E0,0E0,0E0,0E0,0E0,0E0,0E0,0E0,0E0,0E0,0E0,0E0,0E0,0E0,0E0,0E0,0E0,0E0,0E0,0E0,0E0,0E0,0E0,0E0,0E0,0E0,0E0,0E0,0E0,0E0,0E0,0E0,0E0,0E0,0E0,0E0,0E0,0E0,0E0,0E0,0E0,0E0,0E0,0E0,0E0,0E0,0E0,0E0,0E0,0E0,0E0,0E0,0E0],"parents":[2147483647,0,0,1,1,2,2,3,3,4,4,5,5,6,6,7,7,8,8,9,9,10,10,11,11,12,12,13,13,14,14,15,15,16,16,17,17,18,18,19,19,20,20,21,21,22,22,23,23,24,24,25,25,26,26,27,27,28,28,29,29,30,30,31,31,32,32,33,33,34,34,35,35,36,36,37,37,38,38,39,39,40,40,41,41,42,42,43,43,44,44,45,45,46,46,47,47,48,48,49,49,50,50,51,51,52,52,53,53,54,54,55,55,56,56,57,57,58,58,59,59,60,60,61,61,62,62],"right_children":[2,4,6,8,10,12,14,16,18,20,22,24,26,28,30,32,34,36,38,40,42,44,46,48,50,52,54,56,58,60,62,64,66,68,70,72,74,76,78,80,82,84,86,88,90,92,94,96,98,100,102,104,106,108,110,112,114,116,118,120,122,124,126,-1,-1,-1,-1,-1,-1,-1,-1,-1,-1,-1,-1,-1,-1,-1,-1,-1,-1,-1,-1,-1,-1,-1,-1,-1,-1,-1,-1,-1,-1,-1,-1,-1,-1,-1,-1,-1,-1,-1,-1,-1,-1,-1,-1,-1,-1,-1,-1,-1,-1,-1,-1,-1,-1,-1,-1,-1,-1,-1,-1,-1,-1,-1,-1],"split_conditions":[2.3E1,3.77E2,1.63E2,1.4E1,1.068E3,1.54E2,1.67E2,1E1,2.07E2,2.014E3,1E1,8.4E1,3.67E2,6.37E2,3.66E2,2.39E2,2.87E2,1.9E1,1.9E1,1.4E1,6E0,6E0,1.1E1,7.9E1,9.2E1,3.57E2,1E0,3.38E2,1.115E3,3.62E2,3.92E2,1.3E1,6E0,1E0,5E0,1.2E1,1E0,3.73E2,5E0,5.28E2,5.72E2,8.76E2,4E0,1E0,1.161E3,1.4E1,1.172E3,6.6E1,5.79E2,1.161E3,1.45E2,3.16E2,1.16711E5,4.61E2,5.76E2,1E0,1E0,1E0,7E0,3.137E3,2.07E2,1.326E3,4.26E2,-1.5195757E1,-2.3560612E0,-3.148886E1,-1.5917838E2,-8.30602E0,6.4871704E1,1.3881015E2,4.9054718E2,-1.8263346E1,-1.2852933E0,-4.684075E1,-7.356997E1,-2.866754E2,-7.381244E1,-2.1971715E2,-5.1123714E1,2.555112E0,-1.2172594E2,-2.008365E2,-1.0528456E2,-1.302761E2,1.7318024E1,-8.937438E1,-3.2163662E1,-1.3317966E2,-3.5730515E2,1.99718E2,8.179045E2,-4.170095E2,-1.384994E2,1.022836E2,-1.6325597E2,6.0973618E1,-6.862011E1,1.3430615E2,6.679457E2,-3.248442E2,6.941177E2,-1.8924454E1,1.0902866E2,-9.022297E0,-9.971881E1,3.831482E2,-3.593622E1,6.150059E2,3.6420703E2,9.5824756E2,5.5514844E2,-3.9571643E0,-5.1790226E1,-2.1461832E2,-3.5298187E2,-4.4501816E2,-5.8430853E2,3.0363028E2,-8.357988E2,-2.6550028E1,5.596838E2,-9.158819E0,-4.366909E2,1.3542973E2,7.686403E2,-7.482603E1,1.5086583E0],"split_indices":[1,3,1,1,3,1,1,1,3,7,1,1,3,3,1,3,3,1,1,1,1,1,8,1,1,3,5,3,3,1,1,9,1,4,2,9,5,3,2,3,3,3,8,5,3,1,3,1,3,3,1,3,0,3,3,5,5,5,8,3,3,3,1,0,0,0,0,0,0,0,0,0,0,0,0,0,0,0,0,0,0,0,0,0,0,0,0,0,0,0,0,0,0,0,0,0,0,0,0,0,0,0,0,0,0,0,0,0,0,0,0,0,0,0,0,0,0,0,0,0,0,0,0,0,0,0,0],"split_type":[0,0,0,0,0,0,0,0,0,0,0,0,0,0,0,0,0,0,0,0,0,0,0,0,0,0,0,0,0,0,0,0,0,0,0,0,0,0,0,0,0,0,0,0,0,0,0,0,0,0,0,0,0,0,0,0,0,0,0,0,0,0,0,0,0,0,0,0,0,0,0,0,0,0,0,0,0,0,0,0,0,0,0,0,0,0,0,0,0,0,0,0,0,0,0,0,0,0,0,0,0,0,0,0,0,0,0,0,0,0,0,0,0,0,0,0,0,0,0,0,0,0,0,0,0,0,0],"sum_hessian":[5.12672E5,1.0188E4,5.02484E5,2.253E3,7.935E3,6.423E4,4.38254E5,1.403E3,8.5E2,7.052E3,8.83E2,6.0104E4,4.126E3,1.677E3,4.36577E5,9.29E2,4.74E2,7.2E2,1.3E2,2.786E3,4.266E3,4.73E2,4.1E2,2.8265E4,3.1839E4,7.63E2,3.363E3,8.12E2,8.65E2,9.1844E4,3.44733E5,7.58E2,1.71E2,3.53E2,1.21E2,4.08E2,3.12E2,5.3E1,7.7E1,1.534E3,1.252E3,9.44E2,3.322E3,3.64E2,1.09E2,3.21E2,8.9E1,2.5995E4,2.27E3,3.733E3,2.8106E4,7.58E2,5E0,1.817E3,1.546E3,3.5E2,4.62E2,8.16E2,4.9E1,9.0023E4,1.821E3,1.2356E4,3.32377E5,3.08E2,4.5E2,9.2E1,7.9E1,3.17E2,3.6E1,8.9E1,3.2E1,1.55E2,2.53E2,2.82E2,3E1,5E1,3E0,3.1E1,4.6E1,3.39E2,1.195E3,3.96E2,8.56E2,8.86E2,5.8E1,1.121E3,2.201E3,1.76E2,1.88E2,4.9E1,6E1,2.49E2,7.2E1,3E1,5.9E1,1.9999E4,5.996E3,1.492E3,7.78E2,3.181E3,5.52E2,2.406E4,4.046E3,7.29E2,2.9E1,2E0,3E0,2.09E2,1.608E3,2.87E2,1.259E3,3.36E2,1.4E1,3.2E2,1.42E2,3.88E2,4.28E2,3.4E1,1.5E1,8.965E4,3.73E2,3.1E2,1.511E3,1.1322E4,1.034E3,1.5683E4,3.16694E5],"tree_param":{"num_deleted":"0","num_feature":"14","num_nodes":"127","size_leaf_vector":"1"}},{"base_weights":[2.1844149E-2,-1.5751345E0,2.863044E2,1.7051816E0,-2.9016312E2,1.592142E2,7.544125E2,-1.2808387E0,1.4745999E2,-1.004882E3,5.3878445E1,-9.4874525E0,2.0540372E2,2.4625716E2,1.1474385E3,9.770321E0,-5.0980667E1,-3.0719147E1,4.5414334E2,-8.188774E2,-1.6870226E3,-1.5220387E1,9.4997314E2,-3.0022564E1,3.5177956E0,3.5721548E2,1.0990948E2,4.351798E1,1.2149332E3,9.580902E2,1.797551E3,-7.7793044E-1,1.112269E2,-3.2447703E0,-1.6419725E2,8.4117775E1,-4.486866E2,2.0091091E3,2.550379E2,-1.5983094E1,-9.4287366E2,-1.0376431E3,-2.5518513E3,1.3450414E2,-1.9460577E2,4.3913065E2,1.1776869E3,-3.493112E1,-1.0499544E1,9.506082E0,-2.6862055E1,2.4998894E2,6.6877277E2,4.685945E1,5.294635E2,5.5248224E2,-6.500027E2,3.3183182E2,1.8814792E3,1.4477639E3,3.6423395E2,1.200064E3,2.8374326E3,6.814878E-1,-2.0415701E2,2.5086002E1,3.720012E2,-2.3642038E2,3.715168E0,-1.9435782E2,-2.0927832E1,-1.32999E2,1.1341421E2,-3.1971731E1,-4.3722488E2,8.724947E2,1.6239573E3,-1.0005531E2,3.802006E2,-1.6152058E1,-1.7823877E0,-5.135986E2,-4.3886948E1,-5.979298E2,2.5269395E2,-1.5400546E3,-8.363883E2,2.6055613E1,1.1690899E2,-1.06135086E2,1.736107E2,4.8380194E2,1.3861977E2,5.1467535E2,7.87704E2,-3.238398E1,-1.5922459E1,-7.78703E0,1.3560987E1,1.6366947E-1,2.2923677E1,2.93895E0,-1.4951447E1,-8.3189995E1,1.3418016E2,2.1639249E2,4.7868536E2,8.397121E0,2.1014355E2,1.1832323E2,4.246707E2,1.167414E2,6.1184436E2,-1.0248754E3,3.017458E0,3.2898264E2,-2.0721506E2,6.9372864E2,1.8394401E3,3.863339E2,9.3572363E2,7.453058E0,1.0218124E3,6.6409674E2,-6.2501514E2,-1.1967432E2,1.6160016E3],"categories":[],"categories_nodes":[],"categories_segments":[],"categories_sizes":[],"default_left":[0,0,0,0,0,0,0,0,0,0,0,0,0,0,0,0,0,0,0,0,0,0,0,0,0,0,0,0,0,0,0,0,0,0,0,0,0,0,0,0,0,0,0,0,0,0,0,0,0,0,0,0,0,0,0,0,0,0,0,0,0,0,0,0,0,0,0,0,0,0,0,0,0,0,0,0,0,0,0,0,0,0,0,0,0,0,0,0,0,0,0,0,0,0,0,0,0,0,0,0,0,0,0,0,0,0,0,0,0,0,0,0,0,0,0,0,0,0,0,0,0,0,0,0,0,0,0],"id":11,"left_children":[1,3,5,7,9,11,13,15,17,19,21,23,25,27,29,31,33,35,37,39,41,43,45,47,49,51,53,55,57,59,61,63,65,67,69,71,73,75,77,79,81,83,85,87,89,91,93,95,97,99,101,103,105,107,109,111,113,115,117,119,121,123,125,-1,-1,-1,-1,-1,-1,-1,-1,-1,-1,-1,-1,-1,-1,-1,-1,-1,-1,-1,-1,-1,-1,-1,-1,-1,-1,-1,-1,-1,-1,-1,-1,-1,-1,-1,-1,-1,-1,-1,-1,-1,-1,-1,-1,-1,-1,-1,-1,-1,-1,-1,-1,-1,-1,-1,-1,-1,-1,-1,-1,-1,-1,-1,-1],"loss_changes":[2.3438795E8,4.8263606E8,1.6907502E8,2.1939846E8,1.409021E9,1.7440992E7,1.2094637E8,2.7131555E8,5.5301696E8,2.3487155E8,2.3957944E8,1.2883057E5,2.5432232E7,5.2186496E7,4.037725E7,4.324883E8,4.856474E8,3.0732154E8,1.1508979E9,1.458343E8,2.2086976E8,9.652838E7,3.1705104E7,1.7553422E4,5.410463E4,2.2482904E7,2.8544316E7,7.836708E7,2.6452544E7,7.711518E7,4.381488E7,3.1939098E8,1.4703356E9,3.1687443E8,7.320316E8,2.5103576E8,2.2600112E8,1.3240781E8,7.587428E8,3.9812734E4,9.141107E7,5.651085E7,7.379187E7,1.6017836E7,1.5722372E7,7.175038E6,9.646672E6,1.1657766E4,7.867928E3,8.270966E4,5.0540547E3,3.915184E6,1.1367936E7,1.0546491E7,1.3005868E7,2.7120948E7,8.633138E7,5.383681E6,1.7982552E7,4.031392E7,7.154181E7,1.735676E7,3.3551776E7,0E0,0E0,0E0,0E0,0E0,0E0,0E0,0E0,0E0,0E0,0E0,0E0,0E0,0E0,0E0,0E0,0E0,0E0,0E0,0E0,0E0,0E0,0E0,0E0,0E0,0E0,0E0,0E0,0E0,0E0,0E0,0E0,0E0,0E0,0E0,0E0,0E0,0E0,0E0,0E0,0E0,0E0,0E0,0E0,0E0,0E0,0E0,0E0,0E0,0E0,0E0,0E0,0E0,0E0,0E0,0E0,0E0,0E0,0E0,0E0,0E0,0E0,0E0,0E0],"parents":[2147483647,0,0,1,1,2,2,3,3,4,4,5,5,6,6,7,7,8,8,9,9,10,10,11,11,12,12,13,13,14,14,15,15,16,16,17,17,18,18,19,19,20,20,21,21,22,22,23,23,24,24,25,25,26,26,27,27,28,28,29,29,30,30,31,31,32,32,33,33,34,34,35,35,36,36,37,37,38,38,39,39,40,40,41,41,42,42,43,43,44,44,45,45,46,46,47,47,48,48,49,49,50,50,51,51,52,52,53,53,54,54,55,55,56,56,57,57,58,58,59,59,60,60,61,61,62,62],"right_children":[2,4,6,8,10,12,14,16,18,20,22,24,26,28,30,32,34,36,38,40,42,44,46,48,50,52,54,56,58,60,62,64,66,68,70,72,74,76,78,80,82,84,86,88,90,92,94,96,98,100,102,104,106,108,110,112,114,116,118,120,122,124,126,-1,-1,-1,-1,-1,-1,-1,-1,-1,-1,-1,-1,-1,-1,-1,-1,-1,-1,-1,-1,-1,-1,-1,-1,-1,-1,-1,-1,-1,-1,-1,-1,-1,-1,-1,-1,-1,-1,-1,-1,-1,-1,-1,-1,-1,-1,-1,-1,-1,-1,-1,-1,-1,-1,-1,-1,-1,-1,-1,-1,-1,-1,-1,-1],"split_conditions":[1.11E3,1.097E3,8.26E2,1.075E3,1.101E3,2.07E2,1E0,8.79E2,7.57E2,2.073E3,9.28E2,1.2E1,4.86E2,1.1E1,2.015E3,7.97E2,8.12E2,1.092E3,1.079E3,1E0,1E0,1.106E3,1E0,1E1,1.1E1,1E0,5E0,3.137E3,2.608E3,1.664E3,3.137E3,7.93E2,1.096E3,8.83E2,9.49E2,1.079E3,4.99E2,5E0,1.088E3,1.2E1,1.247E3,1.2E1,2.608E3,4E0,8.42E2,1E0,2.015E3,2E0,1E0,8E0,3E0,4E0,4.47E2,6.59161E5,6.47E2,4E0,4E0,1.125E3,2.9E1,9.39E2,1.1E1,3E1,3E0,6.814878E-1,-2.0415701E2,2.5086002E1,3.720012E2,-2.3642038E2,3.715168E0,-1.9435782E2,-2.0927832E1,-1.32999E2,1.1341421E2,-3.1971731E1,-4.3722488E2,8.724947E2,1.6239573E3,-1.0005531E2,3.802006E2,-1.6152058E1,-1.7823877E0,-5.135986E2,-4.3886948E1,-5.979298E2,2.5269395E2,-1.5400546E3,-8.363883E2,2.6055613E1,1.1690899E2,-1.06135086E2,1.736107E2,4.8380194E2,1.3861977E2,5.1467535E2,7.87704E2,-3.238398E1,-1.5922459E1,-7.78703E0,1.3560987E1,1.6366947E-1,2.2923677E1,2.93895E0,-1.4951447E1,-8.3189995E1,1.3418016E2,2.1639249E2,4.7868536E2,8.397121E0,2.1014355E2,1.1832323E2,4.246707E2,1.167414E2,6.1184436E2,-1.0248754E3,3.017458E0,3.2898264E2,-2.0721506E2,6.9372864E2,1.8394401E3,3.863339E2,9.3572363E2,7.453058E0,1.0218124E3,6.6409674E2,-6.2501514E2,-1.1967432E2,1.6160016E3],"split_indices":[1,1,3,1,1,3,5,1,3,3,3,9,3,8,7,1,3,1,1,4,5,1,2,8,8,5,2,3,3,3,3,1,3,1,1,1,3,2,1,9,3,8,3,2,3,5,7,2,5,8,2,9,3,0,3,2,2,3,9,3,8,9,8,0,0,0,0,0,0,0,0,0,0,0,0,0,0,0,0,0,0,0,0,0,0,0,0,0,0,0,0,0,0,0,0,0,0,0,0,0,0,0,0,0,0,0,0,0,0,0,0,0,0,0,0,0,0,0,0,0,0,0,0,0,0,0,0],"split_type":[0,0,0,0,0,0,0,0,0,0,0,0,0,0,0,0,0,0,0,0,0,0,0,0,0,0,0,0,0,0,0,0,0,0,0,0,0,0,0,0,0,0,0,0,0,0,0,0,0,0,0,0,0,0,0,0,0,0,0,0,0,0,0,0,0,0,0,0,0,0,0,0,0,0,0,0,0,0,0,0,0,0,0,0,0,0,0,0,0,0,0,0,0,0,0,0,0,0,0,0,0,0,0,0,0,0,0,0,0,0,0,0,0,0,0,0,0,0,0,0,0,0,0,0,0,0,0],"sum_hessian":[5.12672E5,5.09829E5,2.843E3,5.041E5,5.729E3,2.237E3,6.06E2,4.93981E5,1.0119E4,1.861E3,3.868E3,4.81E2,1.756E3,2.65E2,3.41E2,4.04122E5,8.9859E4,6.401E3,3.718E3,1.464E3,3.97E2,3.592E3,2.76E2,1.86E2,2.95E2,6.77E2,1.079E3,2.2E2,4.5E1,2.66E2,7.5E1,3.66064E5,3.8058E4,6.3209E4,2.665E4,5.022E3,1.379E3,4.21E2,3.297E3,1.96E2,1.268E3,2.28E2,1.69E2,1.958E3,1.634E3,8.6E1,1.9E2,1.48E2,3.8E1,2.47E2,4.8E1,5.05E2,1.72E2,9.39E2,1.4E2,1.27E2,9.3E1,2E1,2.5E1,1.45E2,1.21E2,4.9E1,2.6E1,3.64152E5,1.912E3,3.471E4,3.348E3,1.404E3,6.1805E4,9.399E3,1.7251E4,1.454E3,3.568E3,7.25E2,6.54E2,3.49E2,7.2E1,1.735E3,1.562E3,8.4E1,1.12E2,1.154E3,1.14E2,2.07E2,2.1E1,1.04E2,6.5E1,1.071E3,8.87E2,1.583E3,5.1E1,1.9E1,6.7E1,1.41E2,4.9E1,1.2E1,1.36E2,3.4E1,4E0,1.98E2,4.9E1,4E0,4.4E1,2.1E1,4.84E2,9.6E1,7.6E1,8.7E2,6.9E1,7.4E1,6.6E1,8.7E1,4E1,2.9E1,6.4E1,1.4E1,6E0,2.1E1,4E0,5.7E1,8.8E1,1.01E2,2E1,4.7E1,2E0,3E0,2.3E1],"tree_param":{"num_deleted":"0","num_feature":"14","num_nodes":"127","size_leaf_vector":"1"}},{"base_weights":[2.7600743E-2,3.0001621E1,-8.74957E0,1.0795319E1,1.1926948E3,-3.8203152E2,1.0894759E0,2.8524504E1,-3.085236E2,2.3429524E2,1.857514E3,-2.6929037E2,-1.3552758E3,2.1071857E2,-2.265386E0,-7.155218E-1,5.259213E2,-1.0476426E2,-7.187487E2,-3.7441113E1,5.388914E2,1.1982495E3,2.091334E3,2.5615527E2,-5.5406836E2,-3.1617622E3,1.35855E2,8.758396E1,4.3272888E2,-2.955851E2,3.969331E0,2.2625565E1,-5.545213E2,4.988863E2,3.613399E3,-2.538188E2,3.084881E2,-1.5694938E3,-5.1682477E2,3.1393448E2,-8.054073E1,3.146434E2,6.852611E2,1.4626134E3,8.3415625E2,2.470884E3,1.7048319E3,-6.1224813E0,1.769522E3,-3.7848072E1,-7.294042E2,-3.6590347E3,1.12141266E2,-6.329509E2,3.426507E3,5.020283E1,1.2115862E3,2.7303293E2,7.5351404E2,-1.3784505E2,-5.6772614E2,7.3037244E2,3.010435E-1,-3.1515077E-1,5.92172E2,-1.288208E2,-4.1645395E2,5.1580467E1,3.375616E2,2.0635195E3,8.775068E2,-4.9728374E1,-3.1677252E2,1.3812367E1,4.915949E2,-7.9442224E2,7.023835E2,-2.8270474E2,8.2724075E1,-1.0309154E1,4.084546E2,4.875975E0,-3.1297858E2,2.6329135E2,-1.6197516E2,1.7205519E2,4.8334286E2,1.0715926E2,7.8699E2,6.730345E2,2.157632E2,1.1725404E3,2.4747979E3,5.2958124E2,1.0124847E3,7.019198E1,-1.4515817E2,-7.9191315E1,2.418036E3,1.1587113E1,-1.2323446E2,-3.5409305E2,-1.1045327E3,2.9761554E2,-2.002014E3,2.3893071E2,-1.7513986E3,-4.306955E2,3.1845266E3,-4.9851498E2,2.7959858E3,8.92941E1,-2.1766006E1,5.0075116E2,1.7742047E3,3.7061188E0,1.8447919E2,3.392698E2,5.3551263E2,-1.6784863E2,1.2565479E0,-1.9022513E2,-7.0585016E2,-4.2817394E1,7.658877E2,9.586988E-1,-2.2117139E2],"categories":[],"categories_nodes":[],"categories_segments":[],"categories_sizes":[],"default_left":[0,0,0,0,0,0,0,0,0,0,0,0,0,0,0,0,0,0,0,0,0,0,0,0,0,0,0,0,0,0,0,0,0,0,0,0,0,0,0,0,0,0,0,0,0,0,0,0,0,0,0,0,0,0,0,0,0,0,0,0,0,0,0,0,0,0,0,0,0,0,0,0,0,0,0,0,0,0,0,0,0,0,0,0,0,0,0,0,0,0,0,0,0,0,0,0,0,0,0,0,0,0,0,0,0,0,0,0,0,0,0,0,0,0,0,0,0,0,0,0,0,0,0,0,0,0,0],"id":12,"left_children":[1,3,5,7,9,11,13,15,17,19,21,23,25,27,29,31,33,35,37,39,41,43,45,47,49,51,53,55,57,59,61,63,65,67,69,71,73,75,77,79,81,83,85,87,89,91,93,95,97,99,101,103,105,107,109,111,113,115,117,119,121,123,125,-1,-1,-1,-1,-1,-1,-1,-1,-1,-1,-1,-1,-1,-1,-1,-1,-1,-1,-1,-1,-1,-1,-1,-1,-1,-1,-1,-1,-1,-1,-1,-1,-1,-1,-1,-1,-1,-1,-1,-1,-1,-1,-1,-1,-1,-1,-1,-1,-1,-1,-1,-1,-1,-1,-1,-1,-1,-1,-1,-1,-1,-1,-1,-1],"loss_changes":[1.3487792E8,2.5930895E9,1.4564357E9,6.4672326E8,1.2018903E9,1.1170711E9,2.717255E8,1.5740425E9,5.0220006E8,6.4084052E7,1.6921651E8,1.3660134E9,2.847679E9,1.6633603E8,6.954533E8,1.3213391E9,4.997691E8,2.474524E8,3.4172986E8,6.234388E6,1.1764816E7,2.7078368E7,1.1622554E8,1.2737349E9,5.3580275E8,7.7860454E8,1.469495E9,1.644757E8,1.1101043E8,3.396933E8,9.922402E8,2.6499674E9,3.4144934E8,4.1544986E8,4.2393216E7,1.729694E8,2.0178928E8,2.42176E7,5.3561344E7,7.589064E6,1.8030548E7,1.993068E7,2.078916E7,2.3156768E7,2.538916E7,1.1686656E8,8.260352E7,1.1395747E8,2.8030612E9,1.912696E7,1.37173E8,6.114765E8,8.628543E7,7.588686E8,1.0592667E9,4.5629364E7,5.830331E7,3.6968424E7,1.6436832E7,1.3918494E8,4.5845754E8,1.2236726E9,2.650829E8,0E0,0E0,0E0,0E0,0E0,0E0,0E0,0E0,0E0,0E0,0E0,0E0,0E0,0E0,0E0,0E0,0E0,0E0,0E0,0E0,0E0,0E0,0E0,0E0,0E0,0E0,0E0,0E0,0E0,0E0,0E0,0E0,0E0,0E0,0E0,0E0,0E0,0E0,0E0,0E0,0E0,0E0,0E0,0E0,0E0,0E0,0E0,0E0,0E0,0E0,0E0,0E0,0E0,0E0,0E0,0E0,0E0,0E0,0E0,0E0,0E0,0E0,0E0,0E0],"parents":[2147483647,0,0,1,1,2,2,3,3,4,4,5,5,6,6,7,7,8,8,9,9,10,10,11,11,12,12,13,13,14,14,15,15,16,16,17,17,18,18,19,19,20,20,21,21,22,22,23,23,24,24,25,25,26,26,27,27,28,28,29,29,30,30,31,31,32,32,33,33,34,34,35,35,36,36,37,37,38,38,39,39,40,40,41,41,42,42,43,43,44,44,45,45,46,46,47,47,48,48,49,49,50,50,51,51,52,52,53,53,54,54,55,55,56,56,57,57,58,58,59,59,60,60,61,61,62,62],"right_children":[2,4,6,8,10,12,14,16,18,20,22,24,26,28,30,32,34,36,38,40,42,44,46,48,50,52,54,56,58,60,62,64,66,68,70,72,74,76,78,80,82,84,86,88,90,92,94,96,98,100,102,104,106,108,110,112,114,116,118,120,122,124,126,-1,-1,-1,-1,-1,-1,-1,-1,-1,-1,-1,-1,-1,-1,-1,-1,-1,-1,-1,-1,-1,-1,-1,-1,-1,-1,-1,-1,-1,-1,-1,-1,-1,-1,-1,-1,-1,-1,-1,-1,-1,-1,-1,-1,-1,-1,-1,-1,-1,-1,-1,-1,-1,-1,-1,-1,-1,-1,-1,-1,-1,-1,-1,-1],"split_conditions":[2.54E2,2.5E2,2.76E2,2.37E2,6.52E2,1.664E3,2.9E2,2.24E2,7.64E2,5.01E2,7.6E2,2.63E2,2.608E3,2.85E2,3.07E2,2.15E2,1.348E3,2.46E2,2.41E2,3E0,5.74E2,1E0,1.552E3,1.035E3,4.31E2,2.63E2,6E0,8.84E2,5.31E2,7.27E2,3.11E2,2.11E2,5.58E2,4.1E2,1.2E1,5.48E2,5.96E2,1.552E3,1.2E1,4.4E2,2.07E2,4E0,1.5E1,6E0,3E0,1.161E3,2.283E3,1E0,2.59E2,2.98E2,6E0,2.59E2,2.71E2,1E0,3.137E3,2.8E2,3E1,1E0,5E0,2.98E2,3.02E2,5.67E2,3.137E3,-3.1515077E-1,5.92172E2,-1.288208E2,-4.1645395E2,5.1580467E1,3.375616E2,2.0635195E3,8.775068E2,-4.9728374E1,-3.1677252E2,1.3812367E1,4.915949E2,-7.9442224E2,7.023835E2,-2.8270474E2,8.2724075E1,-1.0309154E1,4.084546E2,4.875975E0,-3.1297858E2,2.6329135E2,-1.6197516E2,1.7205519E2,4.8334286E2,1.0715926E2,7.8699E2,6.730345E2,2.157632E2,1.1725404E3,2.4747979E3,5.2958124E2,1.0124847E3,7.019198E1,-1.4515817E2,-7.9191315E1,2.418036E3,1.1587113E1,-1.2323446E2,-3.5409305E2,-1.1045327E3,2.9761554E2,-2.002014E3,2.3893071E2,-1.7513986E3,-4.306955E2,3.1845266E3,-4.9851498E2,2.7959858E3,8.92941E1,-2.1766006E1,5.0075116E2,1.7742047E3,3.7061188E0,1.8447919E2,3.392698E2,5.3551263E2,-1.6784863E2,1.2565479E0,-1.9022513E2,-7.0585016E2,-4.2817394E1,7.658877E2,9.586988E-1,-2.2117139E2],"split_indices":[1,1,1,1,3,3,1,1,3,3,3,1,3,1,1,1,3,1,1,2,3,5,3,3,3,1,2,3,3,3,1,1,3,3,8,3,3,3,8,3,3,2,9,9,2,3,3,5,1,3,2,1,1,11,3,1,9,4,2,1,1,3,3,0,0,0,0,0,0,0,0,0,0,0,0,0,0,0,0,0,0,0,0,0,0,0,0,0,0,0,0,0,0,0,0,0,0,0,0,0,0,0,0,0,0,0,0,0,0,0,0,0,0,0,0,0,0,0,0,0,0,0,0,0,0,0,0],"split_type":[0,0,0,0,0,0,0,0,0,0,0,0,0,0,0,0,0,0,0,0,0,0,0,0,0,0,0,0,0,0,0,0,0,0,0,0,0,0,0,0,0,0,0,0,0,0,0,0,0,0,0,0,0,0,0,0,0,0,0,0,0,0,0,0,0,0,0,0,0,0,0,0,0,0,0,0,0,0,0,0,0,0,0,0,0,0,0,0,0,0,0,0,0,0,0,0,0,0,0,0,0,0,0,0,0,0,0,0,0,0,0,0,0,0,0,0,0,0,0,0,0,0,0,0,0,0,0],"sum_hessian":[5.12672E5,1.1612E5,3.96552E5,1.14234E5,1.886E3,1.0183E4,3.86369E5,1.08226E5,6.008E3,7.73E2,1.113E3,9.127E3,1.056E3,6.085E3,3.80284E5,1.02218E5,6.008E3,4.015E3,1.993E3,4.09E2,3.64E2,2.93E2,8.2E2,3.208E3,5.919E3,4.77E2,5.79E2,3.915E3,2.17E3,7.914E3,3.7237E5,9.8085E4,4.133E3,5.957E3,5.1E1,2.951E3,1.064E3,3.81E2,1.612E3,4.4E1,3.65E2,1.45E2,2.19E2,1.68E2,1.25E2,4.11E2,4.09E2,2.735E3,4.73E2,1.501E3,4.418E3,4.14E2,6.3E1,4.7E2,1.09E2,3.79E3,1.25E2,1.45E3,7.2E2,5.011E3,2.903E3,1.87E3,3.705E5,9.6161E4,1.924E3,2.001E3,2.132E3,1.836E3,4.121E3,3.9E1,1.2E1,2.099E3,8.52E2,7.52E2,3.12E2,3.79E2,2E0,1.505E3,1.07E2,2.7E1,1.7E1,3.14E2,5.1E1,1.09E2,3.6E1,1E2,1.19E2,1.4E1,1.54E2,5.4E1,7.1E1,3.93E2,1.8E1,1.37E2,2.72E2,1.805E3,9.3E2,2.91E2,1.82E2,1.162E3,3.39E2,4.357E3,6.1E1,3.1E1,3.83E2,5.8E1,5E0,4.56E2,1.4E1,3.6E1,7.3E1,1.599E3,2.191E3,1.16E2,9E0,3.85E2,1.065E3,5.85E2,1.35E2,2.079E3,2.932E3,2.377E3,5.26E2,9.27E2,9.43E2,3.69153E5,1.347E3],"tree_param":{"num_deleted":"0","num_feature":"14","num_nodes":"127","size_leaf_vector":"1"}},{"base_weights":[4.584542E-2,-6.40928E0,3.8334373E1,5.4471273E0,-3.847035E1,-9.522882E1,5.551936E1,-1.1523377E1,2.3440958E1,-9.105742E0,-8.989896E1,-1.5975057E1,-1.7976225E2,1.100106E2,-2.5301254E0,-5.3861313E1,-5.246521E0,1.0140683E1,1.1550801E2,5.705995E1,-1.7523098E1,-1.08985374E2,1.7933821E2,-1.0524664E2,2.9392933E1,-2.5132552E2,-8.082993E1,9.1434555E1,5.4902625E2,1.5448063E1,-1.7819801E2,-2.050971E1,-1.6837117E2,5.1670355E2,-7.6390753E0,-4.864723E1,3.8853615E1,1.3286023E2,-2.9884836E2,-6.0352654E1,8.6189476E1,-4.1360443E1,1.5584528E1,-7.3841415E1,-1.9446674E2,2.4829408E2,-7.210286E2,1.1600248E0,-1.8270303E2,2.3052433E1,3.4378882E2,-3.5020792E2,-7.009031E0,2.1955008E1,-1.796415E2,6.811696E1,2.3838153E2,3.3662457E2,1.1384938E3,1.1389992E1,3.2793268E2,-6.675327E1,-8.010921E2,-3.4543625E1,8.917302E0,-5.4397087E0,-1.24411934E2,2.2764467E1,4.5253308E2,-1.3851746E2,-3.1097364E0,-1.2433335E1,-1.0357024E2,3.786484E1,-1.3352887E1,1.02483475E2,7.3003626E0,-4.0544888E2,3.2791684E2,1.3489569E2,-8.0719086E1,1.0621673E1,5.8469246E1,-3.7666078E0,-3.336812E1,7.030213E0,1.0577853E2,-6.7988106E1,-1.097947E1,-1.3099745E2,-7.2745194E0,1.0702829E2,7.6244025E2,-4.217841E2,7.4726575E2,-1.2198767E1,1.1983895E2,-1.5116597E2,-7.503198E1,2.4064167E1,-2.095358E1,8.430849E1,3.730196E2,-1.6086609E2,-3.2521042E2,7.02608E1,-1.061447E2,-1.7221039E1,4.771997E2,-3.728252E2,-7.219569E1,1.0113659E2,2.5347103E1,6.6404144E1,3.0076315E2,2.814013E2,-3.7665216E2,1.6949144E3,4.773707E2,1.6806648E1,-3.1798512E1,2.7401767E2,1.3616657E1,-8.5279335E1,2.007163E2,-2.726174E2,-5.5575916E2],"categories":[],"categories_nodes":[],"categories_segments":[],"categories_sizes":[],"default_left":[0,0,0,0,0,0,0,0,0,0,0,0,0,0,0,0,0,0,0,0,0,0,0,0,0,0,0,0,0,0,0,0,0,0,0,0,0,0,0,0,0,0,0,0,0,0,0,0,0,0,0,0,0,0,0,0,0,0,0,0,0,0,0,0,0,0,0,0,0,0,0,0,0,0,0,0,0,0,0,0,0,0,0,0,0,0,0,0,0,0,0,0,0,0,0,0,0,0,0,0,0,0,0,0,0,0,0,0,0,0,0,0,0,0,0,0,0,0,0,0,0,0,0,0,0,0,0],"id":13,"left_children":[1,3,5,7,9,11,13,15,17,19,21,23,25,27,29,31,33,35,37,39,41,43,45,47,49,51,53,55,57,59,61,63,65,67,69,71,73,75,77,79,81,83,85,87,89,91,93,95,97,99,101,103,105,107,109,111,113,115,117,119,121,123,125,-1,-1,-1,-1,-1,-1,-1,-1,-1,-1,-1,-1,-1,-1,-1,-1,-1,-1,-1,-1,-1,-1,-1,-1,-1,-1,-1,-1,-1,-1,-1,-1,-1,-1,-1,-1,-1,-1,-1,-1,-1,-1,-1,-1,-1,-1,-1,-1,-1,-1,-1,-1,-1,-1,-1,-1,-1,-1,-1,-1,-1,-1,-1,-1],"loss_changes":[1.26711096E8,1.66767E8,1.697712E8,9.780025E7,1.7886346E8,5.648809E7,2.0729034E8,4.3801556E7,1.9035002E8,4.1990388E7,2.2122835E8,1.7633058E7,2.886576E7,2.7561094E8,1.002153E8,8.127054E7,1.7926082E8,2.2927763E8,1.411219E8,2.910745E7,5.2786136E7,1.2074659E8,1.771229E8,1.2091044E7,5.7470995E6,5.7180944E7,1.741191E7,1.1110698E8,1.7139651E8,3.649935E7,2.0445274E8,3.07018E7,6.0816336E7,1.1981502E8,5.4644412E7,1.679893E8,2.2062483E8,1.6060029E8,3.8623E8,5.65103E7,1.3613264E7,3.3379812E7,8.3598265E6,9.183398E7,1.4227917E8,1.1541008E8,5.637396E7,3.779231E6,3.269616E6,4.613491E6,3.8905935E6,1.419544E7,2.0714584E7,4.4258664E7,1.7330278E7,6.541508E7,1.7018082E8,2.494071E8,1.4693235E8,4.7359576E7,2.440724E7,1.2156901E8,3.4896864E7,0E0,0E0,0E0,0E0,0E0,0E0,0E0,0E0,0E0,0E0,0E0,0E0,0E0,0E0,0E0,0E0,0E0,0E0,0E0,0E0,0E0,0E0,0E0,0E0,0E0,0E0,0E0,0E0,0E0,0E0,0E0,0E0,0E0,0E0,0E0,0E0,0E0,0E0,0E0,0E0,0E0,0E0,0E0,0E0,0E0,0E0,0E0,0E0,0E0,0E0,0E0,0E0,0E0,0E0,0E0,0E0,0E0,0E0,0E0,0E0,0E0,0E0,0E0,0E0],"parents":[2147483647,0,0,1,1,2,2,3,3,4,4,5,5,6,6,7,7,8,8,9,9,10,10,11,11,12,12,13,13,14,14,15,15,16,16,17,17,18,18,19,19,20,20,21,21,22,22,23,23,24,24,25,25,26,26,27,27,28,28,29,29,30,30,31,31,32,32,33,33,34,34,35,35,36,36,37,37,38,38,39,39,40,40,41,41,42,42,43,43,44,44,45,45,46,46,47,47,48,48,49,49,50,50,51,51,52,52,53,53,54,54,55,55,56,56,57,57,58,58,59,59,60,60,61,61,62,62],"right_children":[2,4,6,8,10,12,14,16,18,20,22,24,26,28,30,32,34,36,38,40,42,44,46,48,50,52,54,56,58,60,62,64,66,68,70,72,74,76,78,80,82,84,86,88,90,92,94,96,98,100,102,104,106,108,110,112,114,116,118,120,122,124,126,-1,-1,-1,-1,-1,-1,-1,-1,-1,-1,-1,-1,-1,-1,-1,-1,-1,-1,-1,-1,-1,-1,-1,-1,-1,-1,-1,-1,-1,-1,-1,-1,-1,-1,-1,-1,-1,-1,-1,-1,-1,-1,-1,-1,-1,-1,-1,-1,-1,-1,-1,-1,-1,-1,-1,-1,-1,-1,-1,-1,-1,-1,-1,-1],"split_conditions":[2.7E1,2E1,2E0,6.3E2,6.78E2,6.08E2,7E0,1.36E2,5E0,1E0,1.2E1,2E0,2.015E3,1.507E3,1.186E3,1.05E2,1.41E2,1E0,6E0,3E0,5E0,8E0,2.4E1,4.4E2,6.03E2,3.1E1,5.49E2,1E0,7.41E2,1.148E3,1.2E1,4.9E1,2.87E2,3.07E2,1.45E2,1.6E1,3E0,7E0,2.283E3,2.2E1,3.77E2,4.89E2,6.68E2,5.14E2,1.1E1,2.608E3,2.283E3,1E0,1.94E2,5.19E2,4E0,1.326E3,8.8E2,5.18E2,5.84E2,3E0,9.5E2,6.49E2,7.58E2,8.04E2,3E1,1.1E1,6.45E2,-3.4543625E1,8.917302E0,-5.4397087E0,-1.24411934E2,2.2764467E1,4.5253308E2,-1.3851746E2,-3.1097364E0,-1.2433335E1,-1.0357024E2,3.786484E1,-1.3352887E1,1.02483475E2,7.3003626E0,-4.0544888E2,3.2791684E2,1.3489569E2,-8.0719086E1,1.0621673E1,5.8469246E1,-3.7666078E0,-3.336812E1,7.030213E0,1.0577853E2,-6.7988106E1,-1.097947E1,-1.3099745E2,-7.2745194E0,1.0702829E2,7.6244025E2,-4.217841E2,7.4726575E2,-1.2198767E1,1.1983895E2,-1.5116597E2,-7.503198E1,2.4064167E1,-2.095358E1,8.430849E1,3.730196E2,-1.6086609E2,-3.2521042E2,7.02608E1,-1.061447E2,-1.7221039E1,4.771997E2,-3.728252E2,-7.219569E1,1.0113659E2,2.5347103E1,6.6404144E1,3.0076315E2,2.814013E2,-3.7665216E2,1.6949144E3,4.773707E2,1.6806648E1,-3.1798512E1,2.7401767E2,1.3616657E1,-8.5279335E1,2.007163E2,-2.726174E2,-5.5575916E2],"split_indices":[9,9,8,3,3,3,8,1,2,2,8,2,7,3,3,1,1,5,2,8,2,8,9,3,3,9,1,6,1,3,8,1,3,3,1,9,2,8,3,9,3,3,3,1,8,3,3,5,1,3,2,3,3,1,1,8,3,1,1,3,9,8,1,0,0,0,0,0,0,0,0,0,0,0,0,0,0,0,0,0,0,0,0,0,0,0,0,0,0,0,0,0,0,0,0,0,0,0,0,0,0,0,0,0,0,0,0,0,0,0,0,0,0,0,0,0,0,0,0,0,0,0,0,0,0,0,0],"split_type":[0,0,0,0,0,0,0,0,0,0,0,0,0,0,0,0,0,0,0,0,0,0,0,0,0,0,0,0,0,0,0,0,0,0,0,0,0,0,0,0,0,0,0,0,0,0,0,0,0,0,0,0,0,0,0,0,0,0,0,0,0,0,0,0,0,0,0,0,0,0,0,0,0,0,0,0,0,0,0,0,0,0,0,0,0,0,0,0,0,0,0,0,0,0,0,0,0,0,0,0,0,0,0,0,0,0,0,0,0,0,0,0,0,0,0,0,0,0,0,0,0,0,0,0,0,0,0],"sum_hessian":[5.12672E5,4.3871E5,7.3962E4,3.20272E5,1.18438E5,8.431E3,6.5531E4,1.64823E5,1.55449E5,7.5392E4,4.3046E4,4.352E3,4.079E3,3.3801E4,3.173E4,2.128E4,1.43543E5,1.35828E5,1.9621E4,8.508E3,6.6884E4,4.0197E4,2.849E3,1.466E3,2.886E3,2.366E3,1.713E3,3.243E4,1.371E3,2.8785E4,2.945E3,1.6481E4,4.799E3,6.54E2,1.42889E5,4.4571E4,9.1257E4,1.8833E4,7.88E2,1.691E3,6.817E3,3.8886E4,2.7998E4,2.8487E4,1.171E4,2.647E3,2.02E2,6.18E2,8.48E2,2.83E3,5.6E1,1.684E3,6.82E2,8.4E2,8.73E2,2.799E4,4.44E3,1.009E3,3.62E2,2.8417E4,3.68E2,2.499E3,4.46E2,7.27E3,9.211E3,1.623E3,3.176E3,2.96E2,3.58E2,7.48E2,1.42141E5,3.8757E4,5.814E3,5.8405E4,3.2852E4,1.1699E4,7.134E3,5.13E2,2.75E2,3.96E2,1.295E3,2.191E3,4.626E3,1.6668E4,2.2218E4,2.7783E4,2.15E2,1.2962E4,1.5525E4,8.514E3,3.196E3,2.579E3,6.8E1,1.92E2,1E1,5.59E2,5.9E1,1.8E2,6.68E2,2.042E3,7.88E2,4E1,1.6E1,1.54E3,1.44E2,3.97E2,2.85E2,7.93E2,4.7E1,5E1,8.23E2,3.216E3,2.4774E4,3.441E3,9.99E2,8.36E2,1.73E2,2.6E1,3.36E2,2.1921E4,6.496E3,2.12E2,1.56E2,2.046E3,4.53E2,2.46E2,2E2],"tree_param":{"num_deleted":"0","num_feature":"14","num_nodes":"127","size_leaf_vector":"1"}},{"base_weights":[2.926669E-2,6.4032383E0,-3.5121246E1,2.714369E0,4.322526E2,-1.1303389E3,-8.637613E0,6.521396E0,-2.4814145E2,6.9043665E2,1.4362096E2,-7.509474E2,-2.3961775E3,3.9284558E2,-2.0742815E1,-8.480574E0,2.5734241E1,-1.0103103E2,-1.069417E3,2.5983408E2,1.0274999E3,4.6008633E2,-9.627596E2,-4.427135E1,-9.3835547E2,-2.9237756E3,-8.6309344E2,2.1452798E2,8.859212E2,-1.6203456E2,2.4185305E1,1.14185E1,-9.2210205E1,4.0539172E2,-5.308421E0,1.59279375E1,-2.2662016E2,-1.4468385E3,9.5609825E1,1.4456148E1,5.34646E2,9.1584296E2,1.2951938E3,-2.2745703E1,5.8806006E2,-1.0846647E3,4.9183377E2,-1.9048178E1,-2.2941283E2,-1.0368783E3,-6.076179E2,-3.0294907E3,6.351989E2,-1.6959414E3,-3.114992E2,-1.273851E1,3.471123E2,7.436305E2,1.2331881E3,-7.712739E1,-4.484305E2,4.143237E2,-6.6623397E0,8.902717E-1,2.2823445E2,-3.0402884E2,-2.346953E1,3.7704693E1,4.484506E2,-2.2434438E2,1.1443355E1,1.6142761E2,-1.11091034E2,-3.1862534E2,-3.3850285E1,-8.4347107E2,-5.8194556E2,-2.594674E2,2.8871646E2,-3.6015234E0,1.23669174E2,3.0797342E2,1.01957E2,3.9599585E2,5.727349E2,-1.2418599E1,9.211271E1,2.0325655E2,3.6022363E2,-8.1287604E2,-4.457768E2,-1.3033136E2,7.120991E2,-1.3705012E1,2.6775266E2,-1.6258226E2,3.0894586E2,-4.0032642E2,-6.792304E2,-2.604805E2,-9.5370374E2,-2.113813E3,-1.36491E3,-3.1399805E2,4.2266565E2,-1.312832E3,-3.6645255E2,-4.3802246E2,-2.0308054E1,3.6378998E1,-1.2248215E1,1.569175E2,3.720905E2,4.413632E2,3.2156726E2,5.886645E2,1.1155674E3,-8.0361984E1,2.2782933E2,-1.0184937E2,-3.4623468E2,4.43506E1,7.004574E2,-2.668881E2,1.6004854E1],"categories":[],"categories_nodes":[],"categories_segments":[],"categories_sizes":[],"default_left":[0,0,0,0,0,0,0,0,0,0,0,0,0,0,0,0,0,0,0,0,0,0,0,0,0,0,0,0,0,0,0,0,0,0,0,0,0,0,0,0,0,0,0,0,0,0,0,0,0,0,0,0,0,0,0,0,0,0,0,0,0,0,0,0,0,0,0,0,0,0,0,0,0,0,0,0,0,0,0,0,0,0,0,0,0,0,0,0,0,0,0,0,0,0,0,0,0,0,0,0,0,0,0,0,0,0,0,0,0,0,0,0,0,0,0,0,0,0,0,0,0,0,0,0,0],"id":14,"left_children":[1,3,5,7,9,11,13,15,17,19,21,23,25,27,29,31,33,35,37,39,41,43,45,47,49,51,53,55,57,59,61,63,65,67,69,71,73,75,77,79,81,83,-1,85,87,89,91,93,95,97,99,101,103,105,107,109,111,113,115,117,119,121,123,-1,-1,-1,-1,-1,-1,-1,-1,-1,-1,-1,-1,-1,-1,-1,-1,-1,-1,-1,-1,-1,-1,-1,-1,-1,-1,-1,-1,-1,-1,-1,-1,-1,-1,-1,-1,-1,-1,-1,-1,-1,-1,-1,-1,-1,-1,-1,-1,-1,-1,-1,-1,-1,-1,-1,-1,-1,-1,-1,-1,-1,-1],"loss_changes":[1.1486377E8,6.817375E8,2.2825661E9,4.1089962E8,2.776372E8,8.9050214E8,3.7344352E8,1.2215866E8,7.769947E8,2.85224E8,6.170239E8,1.8947552E8,3.436654E8,1.975511E8,4.734992E8,3.9652954E8,2.1901279E9,8.014557E7,4.297312E8,5.832162E7,1.9010918E8,8.466541E7,7.004381E7,1.4012568E6,3.622387E7,1.2156774E8,5.046447E7,4.9812576E7,2.8582464E7,4.3757546E8,6.8111514E8,8.248163E8,1.0672037E9,2.2780457E9,2.147536E9,2.0660275E8,1.7164866E8,4.817395E7,7.136408E7,2.3119525E6,1.0845032E7,2.8413952E7,0E0,1.2924484E5,2.5736512E7,3.6375936E7,2.2120864E7,1.2481445E6,3.1216265E6,6.500269E7,2.8516872E7,9.940454E7,3.1852458E6,3.747133E7,1.0363377E7,6.149915E5,1.3561224E7,5.387168E6,6.961264E6,6.183649E8,2.4562342E8,1.3321254E9,1.06916755E9,0E0,0E0,0E0,0E0,0E0,0E0,0E0,0E0,0E0,0E0,0E0,0E0,0E0,0E0,0E0,0E0,0E0,0E0,0E0,0E0,0E0,0E0,0E0,0E0,0E0,0E0,0E0,0E0,0E0,0E0,0E0,0E0,0E0,0E0,0E0,0E0,0E0,0E0,0E0,0E0,0E0,0E0,0E0,0E0,0E0,0E0,0E0,0E0,0E0,0E0,0E0,0E0,0E0,0E0,0E0,0E0,0E0,0E0,0E0,0E0,0E0,0E0],"parents":[2147483647,0,0,1,1,2,2,3,3,4,4,5,5,6,6,7,7,8,8,9,9,10,10,11,11,12,12,13,13,14,14,15,15,16,16,17,17,18,18,19,19,20,20,21,21,22,22,23,23,24,24,25,25,26,26,27,27,28,28,29,29,30,30,31,31,32,32,33,33,34,34,35,35,36,36,37,37,38,38,39,39,40,40,41,41,43,43,44,44,45,45,46,46,47,47,48,48,49,49,50,50,51,51,52,52,53,53,54,54,55,55,56,56,57,57,58,58,59,59,60,60,61,61,62,62],"right_children":[2,4,6,8,10,12,14,16,18,20,22,24,26,28,30,32,34,36,38,40,42,44,46,48,50,52,54,56,58,60,62,64,66,68,70,72,74,76,78,80,82,84,-1,86,88,90,92,94,96,98,100,102,104,106,108,110,112,114,116,118,120,122,124,-1,-1,-1,-1,-1,-1,-1,-1,-1,-1,-1,-1,-1,-1,-1,-1,-1,-1,-1,-1,-1,-1,-1,-1,-1,-1,-1,-1,-1,-1,-1,-1,-1,-1,-1,-1,-1,-1,-1,-1,-1,-1,-1,-1,-1,-1,-1,-1,-1,-1,-1,-1,-1,-1,-1,-1,-1,-1,-1,-1,-1,-1],"split_conditions":[9.45E2,9.37E2,9.49E2,9.23E2,9.41E2,1.374E3,9.54E2,5.18E2,9.8E2,5.91E2,8.88E2,3.38E2,5E0,6.27E2,9.93E2,4.18E2,5.49E2,6.08E2,9.32E2,4.64E2,1.068E3,2.98E2,1.2E1,2.98E2,1.068E3,1E0,1.607E3,4.24E2,7.6E2,9.84E2,1.002E3,4.09E2,4.26E2,7.73E2,5.71E2,9.28E2,9.28E2,9.28E2,1.068E3,4.47E2,5E0,8.42E2,1.2951938E3,2.07E2,2.014E3,1.068E3,1.9E1,2.87E2,6.67683E5,1E0,6.8699E5,1E0,1.821E3,4.08353E5,8E0,3E0,5E0,2.014E3,1.043E3,9.8E2,6.42E2,7.09E2,1.01E3,8.902717E-1,2.2823445E2,-3.0402884E2,-2.346953E1,3.7704693E1,4.484506E2,-2.2434438E2,1.1443355E1,1.6142761E2,-1.11091034E2,-3.1862534E2,-3.3850285E1,-8.4347107E2,-5.8194556E2,-2.594674E2,2.8871646E2,-3.6015234E0,1.23669174E2,3.0797342E2,1.01957E2,3.9599585E2,5.727349E2,-1.2418599E1,9.211271E1,2.0325655E2,3.6022363E2,-8.1287604E2,-4.457768E2,-1.3033136E2,7.120991E2,-1.3705012E1,2.6775266E2,-1.6258226E2,3.0894586E2,-4.0032642E2,-6.792304E2,-2.604805E2,-9.5370374E2,-2.113813E3,-1.36491E3,-3.1399805E2,4.2266565E2,-1.312832E3,-3.6645255E2,-4.3802246E2,-2.0308054E1,3.6378998E1,-1.2248215E1,1.569175E2,3.720905E2,4.413632E2,3.2156726E2,5.886645E2,1.1155674E3,-8.0361984E1,2.2782933E2,-1.0184937E2,-3.4623468E2,4.43506E1,7.004574E2,-2.668881E2,1.6004854E1],"split_indices":[1,1,1,1,1,3,1,1,3,3,3,3,2,3,1,1,1,3,1,3,3,3,8,3,3,11,3,3,3,1,1,1,1,3,1,1,1,1,3,3,2,3,0,3,7,3,9,3,0,5,0,2,3,0,9,2,2,7,3,1,3,3,1,0,0,0,0,0,0,0,0,0,0,0,0,0,0,0,0,0,0,0,0,0,0,0,0,0,0,0,0,0,0,0,0,0,0,0,0,0,0,0,0,0,0,0,0,0,0,0,0,0,0,0,0,0,0,0,0,0,0,0,0,0,0],"split_type":[0,0,0,0,0,0,0,0,0,0,0,0,0,0,0,0,0,0,0,0,0,0,0,0,0,0,0,0,0,0,0,0,0,0,0,0,0,0,0,0,0,0,0,0,0,0,0,0,0,0,0,0,0,0,0,0,0,0,0,0,0,0,0,0,0,0,0,0,0,0,0,0,0,0,0,0,0,0,0,0,0,0,0,0,0,0,0,0,0,0,0,0,0,0,0,0,0,0,0,0,0,0,0,0,0,0,0,0,0,0,0,0,0,0,0,0,0,0,0,0,0,0,0,0,0],"sum_hessian":[5.12672E5,4.33978E5,7.8694E4,4.30252E5,3.726E3,1.857E3,7.6837E4,4.23821E5,6.431E3,1.966E3,1.76E3,1.43E3,4.27E2,2.248E3,7.4589E4,2.37991E5,1.8583E5,5.455E3,9.76E2,8.64E2,1.102E3,1.369E3,3.91E2,3E2,1.13E3,3.17E2,1.1E2,1.652E3,5.96E2,1.7995E4,5.6594E4,1.92292E5,4.5699E4,1.4045E4,1.71785E5,2.825E3,2.63E3,7.37E2,2.39E2,4.57E2,4.07E2,1.03E3,7.2E1,2.87E2,1.082E3,3.61E2,3E1,2.65E2,3.5E1,8.69E2,2.61E2,3.08E2,9E0,4.3E1,6.7E1,6.09E2,1.043E3,4.25E2,1.71E2,1.3881E4,4.114E3,4.146E3,5.2448E4,1.88217E5,4.075E3,3.686E3,4.2013E4,8.404E3,5.641E3,1.027E4,1.61515E5,1.234E3,1.591E3,7.33E2,1.897E3,3.96E2,3.41E2,1.05E2,1.34E2,4.19E2,3.8E1,3.26E2,8.1E1,6.72E2,3.58E2,2.85E2,2E0,4.58E2,6.24E2,9.3E1,2.68E2,1.7E1,1.3E1,2.62E2,3E0,3.2E1,3E0,5.03E2,3.66E2,2.46E2,1.5E1,5.9E1,2.49E2,1E0,8E0,2.1E1,2.2E1,2.1E1,4.6E1,7.3E1,5.36E2,9.64E2,7.9E1,1.75E2,2.5E2,1.64E2,7E0,1.1999E4,1.882E3,2.055E3,2.059E3,3.118E3,1.028E3,3.584E3,4.8864E4],"tree_param":{"num_deleted":"0","num_feature":"14","num_nodes":"125","size_leaf_vector":"1"}},{"base_weights":[8.890474E-3,-1.5963082E1,1.0428174E1,-3.1346375E1,2.2855331E1,3.0295498E1,-8.714639E0,-6.176159E1,-5.4587255E0,8.979033E0,2.8867337E2,-4.0942497E0,4.268816E1,3.4426978E0,-6.7374916E1,-4.0540577E1,-1.3799536E2,-2.986068E1,1.1524696E2,2.0373163E0,1.1667582E2,3.7948294E2,-3.135297E2,-4.3658226E1,5.6870694E0,3.4339558E1,1.2711662E2,8.771297E1,-8.112758E0,-3.100533E2,-4.658897E1,-7.0559944E1,2.3101919E0,-2.2999265E2,5.540736E1,-1.0193913E1,-9.251112E1,7.5311633E2,9.0953896E1,1.8474617E1,-2.4100777E1,-5.4734184E1,2.2294157E2,4.953162E2,1.9464685E1,-2.2037996E2,-2.0423599E3,-2.1067345E1,-3.1047925E2,2.8056442E1,-1.405983E1,6.504966E1,-1.8526431E0,4.1125928E2,7.0462425E1,7.532244E1,3.827072E2,-3.345662E1,9.035147E0,-2.2816908E2,